sequential/dense/kernel:0
(784, 128)
[[ 2.16005534e-01 -2.24316940e-01  1.78083166e-01 -5.16093612e-01
   5.29328525e-01  1.34046614e-01  1.49790257e-01 -8.30211759e-01
  -1.06168218e-01 -7.46189237e-01 -4.45314422e-02 -4.71708998e-02
   5.31749427e-01 -7.02039003e-02 -2.39320584e-02  1.51963681e-02
  -8.34042504e-02  2.59739142e-02  6.30513191e-01  8.58600251e-03
   2.43455723e-01  8.51341039e-02 -3.54313046e-01 -1.64295971e-01
   1.28308818e-01 -4.65414584e-01 -1.72636300e-01  1.06297210e-02
  -5.45861199e-02  8.31496995e-03  4.72481996e-01 -8.38472724e-01
   1.05850371e-02  1.76418051e-02  4.22719151e-01  1.93041749e-02
  -3.14927697e-01 -1.01673573e-01  4.48314697e-02  3.14252228e-02
   7.42719471e-02  2.79328555e-01 -5.60843408e-01 -5.42903431e-02
  -6.54942021e-02 -1.75853092e-02  6.22664750e-01 -9.45533291e-02
   1.76474258e-01 -3.51650938e-02  3.83442119e-02 -2.32359737e-01
   3.14638495e-01  9.04099494e-02 -3.39139313e-01  1.38301313e-01
   2.34623700e-02 -5.57121597e-02 -5.86883016e-02  2.73216367e-02
   1.09827265e-01  5.42426556e-02  3.90120819e-02  1.26221105e-02
   1.24889717e-01  5.21067023e-01 -3.25965106e-01  5.26440442e-02
  -3.12279612e-01  7.17734471e-02  1.60645694e-01 -6.08935393e-02
   2.48773322e-01  3.10668424e-02 -2.40835138e-02 -7.38445371e-02
  -1.67414676e-02  3.41567397e-02  1.81998059e-01 -1.99058309e-01
   3.61525714e-01 -1.42070353e-02 -1.08777940e-01 -2.33191475e-02
   2.19475031e-02  2.42574438e-02 -4.97758776e-01  2.70861685e-02
  -5.45524694e-02  4.51205790e-01  8.09723139e-02 -2.49513745e-01
  -2.10547730e-01 -1.23794042e-02  5.73257580e-02  6.63325608e-01
   3.25512499e-01  5.70262745e-02  3.04146886e-01 -2.38273308e-01
   4.49018598e-01 -2.99061030e-01 -3.04875582e-01  1.98184520e-01
   3.08007240e-01 -3.67498666e-01  4.57015842e-01 -3.71028706e-02
   5.01261950e-02 -1.98349003e-02  3.71927619e-02  2.91832298e-01
   3.45083475e-01  5.29446125e-01  1.13792636e-01  3.68676603e-01
   2.16940418e-01  3.11420739e-01  1.39374942e-01  3.26714307e-01
   4.12483275e-01 -1.38038369e-02  9.63514522e-02 -1.73501670e-04
  -2.55173258e-02 -1.01963268e-03 -6.05038293e-02 -3.22874457e-01]
 [ 1.41537562e-01  2.14737877e-02  4.11203772e-01  2.17811629e-01
   1.63624119e-02  2.03554228e-01 -1.09350145e-01  2.16269284e-01
  -1.12528169e+00 -6.29732534e-02 -1.08929932e-01 -2.88131922e-01
   4.25488502e-01 -6.82489127e-02  3.01622361e-01 -9.43232328e-02
  -3.04669198e-02  8.79871193e-03  4.54344779e-01 -2.52165079e-01
  -1.76732942e-01  2.39614435e-02  7.02583492e-02  5.41899323e-01
   3.39162081e-01  2.94200797e-02  3.23131740e-01  5.30584976e-02
   6.00477681e-02  1.63797364e-02 -2.83390462e-01  1.85106993e-01
  -5.30479014e-01 -3.36595386e-01  1.61826372e-01 -2.02446833e-01
   1.71658527e-02  1.64496362e-01  1.29800841e-01  2.49506384e-01
  -7.91882426e-02  2.47616172e-01  3.10720682e-01 -4.35505062e-02
  -2.73994982e-01  2.89833564e-02 -4.58189249e-01 -4.23810035e-01
   8.79207179e-02 -5.43024465e-02 -2.56451130e-01 -8.21332037e-02
   2.06219889e-02 -5.87186635e-01 -3.41473371e-01  1.40144303e-01
   7.78747275e-02  1.64614782e-01 -1.86893493e-01 -6.72978833e-02
   2.86945373e-01 -2.82039851e-01  7.65731558e-02  7.87315145e-02
  -4.37563919e-02  4.77165043e-01  1.77753001e-01 -2.04509776e-03
   1.88426211e-01 -1.69544920e-01  1.36452630e-01  2.06310168e-01
   3.90572369e-01 -1.64405927e-02 -3.29061858e-02 -6.87920973e-02
  -6.82007968e-02 -6.93658814e-02 -1.66805416e-01 -3.27559739e-01
  -4.18568611e-01  3.91311273e-02  4.52977598e-01 -6.02485165e-02
  -2.98293866e-02  5.43434098e-02  2.76721530e-02  6.80817589e-02
  -3.20414640e-02 -7.29274973e-02 -1.02232724e-01 -2.47840121e-01
   4.77534950e-01 -1.24684367e-02  5.61390482e-02 -9.77951288e-02
   1.99376658e-01  1.74889296e-01  1.31020471e-01 -3.10726374e-01
   3.70055526e-01  7.57076979e-01  2.73191810e-01 -5.88536084e-01
   6.00221276e-01 -4.06691879e-01  3.67913604e-01 -1.32180691e-01
   7.25457966e-02 -1.67809919e-01 -1.39740437e-01  1.53933257e-01
   5.94820261e-01  2.29715601e-01  3.79974335e-01  4.54136580e-01
   7.47160196e-01  3.13594043e-02  3.42903771e-02  2.63600141e-01
  -1.67037785e-01 -1.35386586e-01 -2.95043141e-01 -5.82584040e-03
  -8.65864977e-02 -2.01479971e-01  6.10012487e-02  1.93477467e-01]
 [ 8.37462470e-02  1.94813609e-01  2.36691684e-01  5.88264763e-01
   1.15859017e-01  1.08961694e-01  3.65956217e-01 -3.19716632e-01
  -1.83622643e-01 -1.57764673e-01  3.03078055e-01 -2.62265384e-01
   2.66717881e-01  5.38616598e-01  6.13288060e-02 -6.36164621e-02
  -3.71297956e-01 -6.02617636e-02 -2.73142934e-01 -3.54322940e-01
  -3.48545223e-01  2.26232857e-02  4.39781278e-01  3.79958361e-01
   2.91940123e-01 -5.48599243e-01  3.85494173e-01  3.73421051e-02
  -7.01857880e-02 -1.50247499e-01 -2.45723963e-01  1.55586481e-01
  -5.57637438e-02 -3.32480431e-01 -1.71494633e-01 -8.64831135e-02
   1.11615442e-01  3.46932352e-01  2.85878152e-01 -1.72904164e-01
  -5.14423251e-02 -3.32555056e-01  2.79746771e-01 -2.21870974e-01
  -1.78780347e-01  1.91357240e-01  1.57462254e-01 -5.16449153e-01
   2.05512047e-01 -4.68477085e-02  6.77210018e-02  1.95767462e-01
  -2.20367759e-01 -3.32982272e-01 -2.15311065e-01 -2.10889608e-01
   6.90321252e-02 -3.31333667e-01 -1.42340735e-01  4.95329350e-02
  -6.14113584e-02 -1.14358783e-01  7.27668777e-02  5.73090464e-03
   5.58136255e-02  2.18580753e-01  7.67338097e-01 -1.59064695e-01
  -3.07878375e-01 -3.20043176e-01 -9.80700731e-01  2.05701157e-01
  -2.44308002e-02  2.22874135e-02  5.60482070e-02 -2.74599582e-01
   6.76304027e-02 -5.76547831e-02  3.32434148e-01  3.85577261e-01
   6.89004302e-01 -3.16847973e-02  6.46854103e-01 -1.46955565e-01
  -5.05795479e-02 -6.67527169e-02  5.72802983e-02 -2.51925252e-02
   1.56032979e-01 -8.59853029e-02 -1.01811551e-01 -1.91083491e-01
   3.62266123e-01  8.65426809e-02  2.11688995e-01  3.81492734e-01
   2.50767022e-01 -2.38766104e-01 -8.27686340e-02 -3.32950473e-01
  -8.02443251e-02  6.46586895e-01  1.65650427e-01 -1.85760304e-01
  -2.99836546e-01 -5.37188053e-01  1.93845648e-02 -1.60259366e-01
   1.35860220e-02 -2.57270902e-01 -1.00830413e-01  7.57315278e-01
   8.22649956e-01  5.71470618e-01 -1.40753463e-01  1.00904651e-01
   7.94300914e-01  1.17216386e-01  1.63452506e-01  4.16081876e-01
   3.07794482e-01 -5.83368897e-01 -3.55222046e-01 -3.36171776e-01
  -7.58527890e-02 -6.76573336e-01 -3.91412638e-02 -3.04850657e-02]
 [ 1.38400450e-01  1.41049042e-01  3.55468243e-01 -2.30892316e-01
   2.89176293e-02  1.99614614e-02 -7.69504905e-02  2.50692308e-01
   2.61338830e-01  4.36143309e-01  7.87434697e-01 -4.70651865e-01
   3.62404644e-01  4.04593885e-01 -1.02256358e-01 -3.24914716e-02
   3.24223144e-03 -4.95523900e-01 -3.54618460e-01 -7.40635097e-01
  -8.69913101e-01  3.05090640e-02  1.27765551e-01  2.47568578e-01
   1.13239385e-01  1.01526469e-01  5.38386881e-01  2.20662244e-02
   1.00328475e-02 -2.79526770e-01  3.32963377e-01  2.28147209e-01
   2.81120479e-01 -8.55003297e-03 -1.14572644e-01  4.25259918e-01
   6.95594966e-01  3.97976875e-01  1.03031605e-01  2.80467957e-01
   3.71219106e-02  2.39932649e-02  2.77997971e-01 -1.50953513e-02
  -4.71015453e-01 -6.41697288e-01 -3.36279303e-01 -5.12554590e-03
   1.93506941e-01 -3.21290381e-02 -4.60729152e-01  2.59294927e-01
   2.71500915e-01 -3.84460479e-01 -1.64270520e-01  2.44333640e-01
  -3.51655781e-02  3.41620781e-02 -9.75034952e-01 -3.97319123e-02
   2.69250005e-01 -1.59325078e-02 -4.49510738e-02  5.32006249e-02
  -2.77359694e-01  1.47273988e-01  6.09580696e-01  8.29536915e-02
  -6.51851177e-01 -6.39791250e-01  1.96964413e-01 -3.72697175e-01
  -6.14974871e-02 -3.21920998e-02  2.55659297e-02 -3.44530225e-01
  -1.24370717e-02 -7.26855099e-02 -3.59374106e-01  6.26003563e-01
  -1.18363835e-01  1.29495692e-02  3.37576598e-01 -7.90825412e-02
   6.19558208e-02 -1.43165421e-02  4.18804586e-01  3.19918990e-03
  -3.11474770e-01 -2.23945647e-01 -1.00791641e-01  4.18680906e-01
   1.54807806e-01 -1.10940933e-01  3.72094244e-01 -2.78867275e-01
   3.50000635e-02 -2.74645358e-01 -6.05816953e-02 -2.10657969e-01
  -4.78168093e-02 -6.07071035e-02 -3.13983746e-02 -4.53159034e-01
   1.25767350e-01 -3.66851956e-01 -3.16199303e-01  3.51795852e-02
   4.16613430e-01 -4.33460483e-03 -8.84878039e-01  9.37433690e-02
  -4.70505446e-01 -3.16223651e-01  5.38698249e-02  4.95331854e-01
   3.98826480e-01  2.47420624e-01  1.38389051e-01  3.62107545e-01
   2.55224794e-01  2.50799935e-02 -3.17530036e-01 -3.78946155e-01
   3.00472796e-01  2.45328680e-01  1.67893231e-01  1.54766336e-01]
 [-2.72278726e-01  5.26287198e-01  9.17184293e-01 -2.51075745e-01
   4.56980802e-02  2.28840038e-01  4.56456542e-01 -2.56591856e-01
  -2.35949159e-01 -1.02938458e-01  2.91041106e-01  6.35938048e-02
  -3.53538752e-01 -4.92489427e-01  1.46669924e+00 -1.10074151e+00
  -1.34245291e-01  5.99634647e-01 -5.65652102e-02 -8.13147306e-01
  -5.66227436e-01 -2.07568333e-01  1.72225937e-01 -1.78869784e-01
   1.56872123e-01 -1.76336974e-01 -5.96164018e-02  1.63949922e-01
  -2.48419978e-02 -3.30941528e-01  1.65969893e-01 -5.17369211e-01
   5.95242739e-01 -1.31325722e-01  6.07863426e-01 -1.00747630e-01
  -6.66919410e-01  2.68417627e-01  2.65596628e-01 -5.32297134e-01
  -6.45466670e-02  1.10501818e-01 -4.31103166e-03  1.92653954e-01
   1.77925527e-01  3.30916286e-01  3.43801260e-01 -9.25699100e-02
   1.95494488e-01 -4.90697920e-02 -5.60820512e-02  7.60161728e-02
   3.04165371e-02  6.75498918e-02 -4.48728144e-01 -2.26609930e-02
  -2.40737274e-02 -2.39123538e-01 -2.48853520e-01  7.41351396e-02
  -4.86203767e-02 -1.44041702e-01 -5.29450178e-02  3.38155478e-02
   4.86708969e-01  1.07176781e+00 -7.25646555e-01  1.55175924e-01
  -3.40983570e-01 -5.39632440e-01  2.99169242e-01  8.81775748e-03
   1.23258245e+00 -7.16918558e-02 -3.41695584e-02  9.98651385e-02
   2.40192726e-01 -2.97599621e-02 -1.70652315e-01 -4.11057740e-01
   5.50278723e-01  1.14565820e-01 -1.15382886e+00  4.63134408e-01
   5.37682623e-02 -2.18879040e-02 -2.63965011e-01 -2.57538185e-02
   2.10789457e-01  6.47913754e-01  3.01806241e-01 -2.88109500e-02
  -1.16787240e-01  1.98475584e-01  9.35365558e-02  1.13669425e-01
   6.36977330e-02  9.45708379e-02 -6.16526544e-01  1.84696749e-01
  -2.58457273e-01 -2.80099124e-01  1.78685471e-01  3.14426005e-01
  -4.52285439e-01 -2.85153836e-01  2.18794733e-01 -5.08919299e-01
   6.03158653e-01  2.34114930e-01 -1.24841645e-01 -4.71971214e-01
  -4.91573721e-01 -4.00631547e-01  2.42436484e-01 -2.24547207e-01
  -8.99061501e-01  9.61451381e-02 -4.51624483e-01 -2.69770175e-01
   5.30348480e-01  7.35525310e-01 -4.91440088e-01 -2.44107358e-02
   3.38728786e-01 -4.02549744e-01  6.21584833e-01 -3.19228739e-01]
 [-6.95951506e-02  3.40879858e-02  6.44697011e-01 -2.51712143e-01
   5.12384355e-01  5.25996804e-01  3.20685893e-01 -7.32213616e-01
  -1.57515183e-01 -1.89090997e-01 -3.37309539e-01  3.91414404e-01
  -1.31541328e-03 -9.69932020e-01  6.33682072e-01 -1.07281125e+00
  -2.62982510e-02  6.28027976e-01  2.47978568e-01 -5.34459531e-01
  -3.35256338e-01 -1.58618540e-01  6.62862062e-01 -1.07568622e-01
   4.74629074e-01 -4.20480929e-02 -1.55644685e-01  3.91652212e-02
  -4.40831557e-02  2.22038507e-01  2.45987773e-01  2.51077265e-01
   2.64986128e-01  2.69056976e-01  7.34524667e-01 -5.07177532e-01
  -9.31794286e-01  2.37637296e-01 -5.95082454e-02 -5.33252239e-01
   7.18443692e-02 -3.88688087e-01  4.95892614e-02  5.24652004e-01
   6.37944877e-01 -9.22183320e-03  3.36104155e-01 -2.47312486e-01
   3.62640262e-01 -1.09938316e-01 -8.10404122e-02  3.69521022e-01
  -3.40942949e-01  3.72633040e-02 -4.68257070e-01 -2.06162915e-01
  -2.83228289e-02 -2.87996680e-01 -6.24517739e-01  1.94389448e-01
   3.18606049e-01 -3.14003706e-01  2.04264373e-02 -5.80433421e-02
   6.34310484e-01  1.00381351e+00 -1.55841768e+00  5.25047332e-02
  -4.02776718e-01 -3.15777212e-01  3.75016872e-03  1.12137340e-01
   7.60771692e-01 -4.19535898e-02  3.28139067e-02 -3.15646499e-01
  -4.97848988e-02 -4.15038317e-03  5.30070782e-01 -5.33288717e-01
   4.34093177e-01  2.08685428e-01 -1.28019667e+00  3.92249346e-01
  -6.16235435e-02  6.61748499e-02  4.17538464e-01 -2.23913714e-02
   2.44441986e-01  6.71755254e-01  4.87074256e-01 -1.77129865e-01
  -1.49354056e-01  1.88758612e-01 -4.81081933e-01 -7.43048340e-02
   7.30233639e-02  4.13787782e-01 -8.25513229e-02  3.56144488e-01
  -2.45608449e-01 -9.92750283e-03 -1.28629521e-01  4.23947841e-01
  -8.00560355e-01  1.60215244e-01  3.50002050e-01 -2.30357900e-01
   3.90292525e-01  2.62794271e-02 -4.71728146e-01 -9.62256789e-01
  -6.74472809e-01 -6.54876649e-01  6.07902348e-01  2.03182232e-02
  -1.65987924e-01  2.15546414e-01 -6.60640538e-01 -4.37883526e-01
   6.82767928e-01  9.97799218e-01 -2.08095804e-01 -4.50115085e-01
   5.14988303e-01  2.85289586e-01  5.51770151e-01  8.15356821e-02]
 [-2.85385251e-01 -1.09069550e+00  3.18730921e-01 -2.03898713e-01
  -5.34984946e-01  7.22138941e-01 -6.05034292e-01 -5.24397120e-02
  -2.17539847e-01 -4.26770210e-01 -2.36072347e-01  9.56835970e-02
   1.14054668e+00 -1.32952422e-01 -1.88701581e-02 -1.35331666e+00
   3.06654602e-01  4.19256300e-01  7.40982592e-01  1.64332122e-01
  -1.52378365e-01 -1.42608181e-01  7.00893223e-01  1.51740327e-01
   3.08034718e-01  2.79557675e-01 -2.30865702e-01 -1.17786914e-01
   5.48652112e-02  4.92442995e-01 -2.09324911e-01  3.49560261e-01
  -2.86562711e-01  7.44351208e-01  5.26627600e-01 -4.91019607e-01
  -3.66622984e-01 -5.34645557e-01  3.71712863e-01 -2.70205498e-01
  -9.99202579e-03 -2.10831165e-02  1.00607857e-01  5.88533700e-01
  -2.76793689e-01  1.48904592e-01 -7.60113835e-01 -3.72200549e-01
  -1.81484014e-01  8.02655821e-04  6.96173429e-01 -2.52955794e-01
   1.12523720e-01  3.11052334e-02 -8.99581850e-01  4.56617117e-01
  -2.24262774e-02 -4.10914630e-01 -6.90213799e-01  8.23443010e-02
   9.20636475e-01 -2.52432585e-01  4.84950282e-02  6.66585043e-02
  -5.41552305e-01  1.22258031e+00 -1.71894407e+00  1.31756589e-01
  -1.91248029e-01 -2.69998342e-01 -4.15494949e-01 -3.67080092e-01
   5.68341494e-01  5.09391986e-02  2.88685411e-02  7.15589762e-01
   1.85562689e-02  3.17230895e-02  3.27787191e-01 -5.46401262e-01
   1.72361568e-01 -1.64607763e-01 -5.92380822e-01  6.74260318e-01
   5.49551845e-02  7.88678825e-02  5.80281019e-01 -6.57673702e-02
  -6.81113780e-01 -5.52786767e-01  7.19611228e-01 -6.68695450e-01
   2.91954994e-01  6.58312440e-02 -5.85405409e-01 -6.47938251e-01
  -6.16104305e-02  4.20136392e-01  1.10361978e-01  4.90340292e-01
   4.76481393e-02  1.36619969e-03 -9.74688888e-01 -3.37859988e-02
  -1.85900003e-01  1.79971829e-01  3.44210446e-01 -6.71257079e-01
   3.78166646e-01 -2.55523533e-01 -3.43364596e-01 -1.29682720e+00
  -5.30620754e-01 -1.35614169e+00  1.04502916e+00  3.84828150e-01
   2.50844389e-01  4.50887948e-01  2.56487131e-01 -1.62982233e-02
   7.17806220e-01  5.20423889e-01 -6.39514506e-01  1.26639694e-01
   9.62199688e-01  1.16234219e+00  3.52966160e-01  3.90345484e-01]
 [ 2.25887686e-01 -1.01742852e+00  4.47964102e-01  4.04499983e-03
  -5.40616751e-01  4.49394643e-01 -1.81249514e-01 -2.37703130e-01
   2.77392149e-01 -4.86477405e-01 -2.99126655e-01  6.36562752e-03
   8.73620510e-01  2.47979641e-01  3.27819400e-02 -1.56701636e+00
   2.90967047e-01 -1.89221457e-01  8.34109604e-01 -4.75914747e-01
  -8.91464710e-01 -7.85740837e-02 -5.41893303e-01 -1.39746249e-01
   6.38401568e-01  2.19893098e-01 -2.51808435e-01 -6.77662343e-03
  -1.96798402e-03  3.05064976e-01  5.10996133e-02 -2.07847938e-01
   7.78688937e-02  2.01148391e-01 -1.65639892e-02 -4.05771405e-01
  -8.82165432e-02 -7.28150427e-01  3.76555324e-01  1.33850038e-01
   6.59748316e-02  4.80087250e-01 -2.73856878e-01  2.88945466e-01
  -8.26476634e-01  6.83208883e-01 -2.05869749e-01 -2.24463508e-01
  -9.30730820e-01  4.54335511e-02  1.66788578e-01  6.89005435e-01
   2.75590211e-01  1.72107350e-02 -5.78103721e-01  5.03983855e-01
  -6.24259785e-02 -4.03089404e-01 -1.06430781e+00 -6.89613745e-02
   1.59410715e-01 -2.48329237e-01  4.35012877e-02 -6.42715022e-02
  -1.81203261e-02  6.89364910e-01 -7.71957517e-01 -1.16172582e-01
  -5.22603333e-01 -2.48833135e-01  7.63633028e-02 -1.11344576e-01
   3.12187344e-01  4.08041589e-02  4.89283875e-02  8.08221340e-01
   1.46031648e-01  8.35710764e-03  4.62561250e-01 -2.79296339e-01
   4.53265697e-01 -1.07390709e-01 -1.79822221e-01  1.37980923e-01
  -6.40968829e-02 -3.26207466e-02  2.07293496e-01  2.12085843e-02
  -1.06195974e+00 -1.61669225e-01  2.14080662e-01 -1.16776109e-01
   6.84273541e-02  1.08862735e-01 -8.56437027e-01  1.33759335e-01
  -7.75456607e-01  4.54672128e-01  3.48375499e-01  4.99650955e-01
   3.64407867e-01 -8.39133263e-02 -4.58295852e-01 -1.01262979e-01
   2.80739158e-01  1.99570253e-01 -6.42657936e-01 -7.91352153e-01
   4.75700438e-01 -2.40458101e-01 -5.46299636e-01 -5.41501880e-01
   4.42100137e-01 -9.47904289e-02  1.48511231e+00  4.82808948e-01
   5.86524606e-01  6.30857229e-01 -9.45064574e-02  1.69907928e-01
   3.71993184e-01 -3.51920873e-01 -4.26651180e-01  3.74331653e-01
   1.66910022e-01  1.05165231e+00 -1.00952722e-01 -2.87814885e-01]
 [ 5.84702611e-01 -8.24793503e-02 -5.29134122e-04  7.18482316e-01
  -1.86658919e-01 -1.38513073e-01  5.03749371e-01  4.32795584e-02
  -3.21806729e-01  1.24453202e-01 -4.54155952e-02 -1.05608866e-01
  -5.37110031e-01  5.62470675e-01  2.57512599e-01 -7.35339463e-01
  -8.18398818e-02  4.23577517e-01 -5.51706374e-01 -3.49787831e-01
  -8.38632584e-01 -3.64875868e-02 -1.24022841e+00  9.18998271e-02
   5.09081125e-01 -4.01365787e-01 -3.84995520e-01  3.54399905e-02
  -7.85229504e-02 -2.77008235e-01 -7.90443420e-02  2.61630118e-01
  -1.47334620e-01 -4.61423635e-01 -1.70810506e-01 -4.28024441e-01
   8.23211763e-03 -1.01594996e+00  1.72224954e-01 -1.32030234e-01
  -1.43558890e-01 -1.73337609e-01 -1.17469065e-01  2.48717099e-01
  -2.96370327e-01  3.61932576e-01  8.73477161e-02 -4.36942011e-01
  -1.33059829e-01  1.95613806e-03  1.81242824e-01  1.07745242e+00
  -6.21220350e-01  3.39971364e-01  3.26866180e-01  4.61701483e-01
  -4.22503836e-02  4.20104414e-01 -1.24123657e+00 -2.76022051e-02
  -1.18272066e-01  2.42182195e-01  9.66668427e-02 -5.76055422e-02
   2.21297368e-01  1.44742757e-01  2.36031875e-01 -2.90711075e-01
  -4.98790443e-01 -4.47122574e-01  2.37997621e-01 -2.14045435e-01
  -4.49744910e-02 -2.74268128e-02 -3.69557813e-02 -2.36947238e-01
   9.22011584e-02  6.52216449e-02  3.02661002e-01 -6.75943971e-01
   2.35541999e-01 -3.36430110e-02  2.25401193e-01  5.51811382e-02
  -3.67871323e-03 -3.90139781e-02  7.95572847e-02  3.87911424e-02
  -6.47021592e-01 -1.68005332e-01 -4.51516500e-03 -2.42882520e-02
   2.89874375e-01  1.40898973e-01 -1.56117880e+00  5.25187194e-01
  -5.74066401e-01  2.54127592e-01  5.74908331e-02  7.28930473e-01
   2.42095008e-01 -2.25113228e-01  1.82753652e-01 -4.28924747e-02
   1.48433909e-01  3.00789833e-01 -4.11554128e-01 -5.41363716e-01
   1.54864520e-01 -3.64409447e-01 -6.55732751e-01  3.88373733e-01
   7.57837951e-01  1.38105199e-01  7.13974357e-01 -3.81051861e-02
   5.00534832e-01  4.38088626e-01 -1.30488396e-01  3.03045362e-01
   3.21727514e-01 -3.77242342e-02  6.25265837e-01  6.83079287e-02
  -2.68778175e-01  2.23192438e-01  1.09244369e-01 -2.50950783e-01]
 [ 2.64910638e-01  2.38508478e-01  5.17142594e-01  7.19210863e-01
  -5.34114361e-01 -4.91759144e-02  6.62939072e-01 -1.61734343e-01
  -1.60219938e-01 -1.00035094e-01 -8.60271156e-02 -3.07918310e-01
  -2.41600826e-01 -8.90946388e-02  2.02170864e-01 -4.00124073e-01
  -9.11641493e-02  4.76537943e-01 -4.38884169e-01  2.04449192e-01
   3.30907875e-03 -8.78458470e-02 -6.50265038e-01 -1.55485451e-01
   2.73782909e-01 -3.80997211e-01 -1.63168088e-01  1.88894108e-01
  -4.31502163e-02 -3.11468765e-02 -3.84350531e-02  3.57083589e-01
  -4.82170433e-01 -1.30523646e+00  1.28189683e-01 -7.87300587e-01
  -9.87607986e-02 -9.09081459e-01  1.18631542e-01 -1.23685189e-01
  -4.50262308e-01 -6.10652506e-01 -3.94846022e-01  5.84301166e-02
  -5.95929846e-02  2.73538046e-02  5.39648175e-01 -6.72248125e-01
   9.05512273e-02 -3.58744711e-02  2.01584563e-01  2.22604945e-01
  -1.71893597e-01 -1.51928276e-01  1.22890659e-01  9.48311482e-03
   8.28340836e-03 -2.74695843e-01 -1.20128155e+00  2.11579114e-01
   4.91881520e-02 -1.04720503e-01  2.09006798e-02 -7.98646137e-02
   4.40523952e-01  4.33543831e-01  1.17138915e-01 -2.14121267e-01
  -1.59447879e-01 -1.82231203e-01  5.97416043e-01  2.21866276e-02
   8.01865309e-02 -6.75120950e-03  2.64545828e-02 -9.42832828e-01
   9.44422334e-02  2.79614031e-02  5.68064094e-01 -1.03532362e+00
  -3.09813350e-01 -6.78819790e-02  1.81750029e-01  1.40896767e-01
   8.58057812e-02 -8.16364288e-02 -6.63040102e-01 -5.36331311e-02
   1.41612485e-01 -1.24564976e-01  5.34500889e-02  2.36647241e-02
   2.58698583e-01  3.14154997e-02 -9.91660297e-01  7.53819466e-01
  -2.57568181e-01  2.38558426e-01 -1.60648599e-01  8.27081621e-01
   6.33759797e-01  5.88399589e-01  1.72763571e-01 -4.46902335e-01
   1.27157971e-01 -5.52466512e-02  3.01255584e-01 -6.74824893e-01
  -2.28080168e-01 -3.40723902e-01 -6.93676472e-01  9.36240137e-01
   7.79434323e-01  5.72300792e-01  1.93149298e-01 -8.54719430e-02
   2.60535657e-01  1.06555134e-01 -2.59227663e-01 -3.31818432e-01
  -2.92727854e-02 -1.21253327e-01  2.92307556e-01  1.10515043e-01
   1.83032379e-01 -1.42420247e-01  6.16991878e-01 -1.57276109e-01]
 [ 3.06808203e-01  1.98819682e-01 -6.64561614e-03 -1.81837231e-01
  -8.47355783e-01  5.44456720e-01  3.79198402e-01 -5.85158348e-01
   4.85546201e-01 -9.13619816e-01 -2.33169407e-01 -1.23938000e+00
  -3.64723861e-01 -7.81175345e-02 -3.96847636e-01 -7.54986107e-01
  -5.16564697e-02  1.11525051e-01  4.85928744e-01  3.63980889e-01
  -1.71086434e-02 -1.30321592e-01 -3.60399671e-02 -2.37979576e-01
   2.69900978e-01 -3.60156298e-01  1.32536246e-02  8.42867672e-01
  -2.28358619e-02  1.28326565e-01  2.88547903e-01 -2.15482876e-01
   1.22367375e-01 -6.16631031e-01 -1.11626796e-01 -3.49612772e-01
   2.69639164e-01 -8.97586942e-01  3.97031665e-01 -4.02609408e-01
   4.67928886e-01 -3.28610092e-02  1.56639218e-01  1.98059857e-01
  -2.11717591e-01 -1.83704108e-01  5.05716145e-01  2.57743821e-02
   1.08973004e-01 -9.35410634e-02  1.55612066e-01 -5.44586957e-01
   4.55813706e-02  8.28164294e-02  1.21717691e-01 -5.57443976e-01
   4.07777876e-02 -3.07404011e-01 -9.13263679e-01  3.41532566e-02
   2.02780049e-02 -1.15226313e-01 -1.13971299e-02  4.34579328e-02
   7.34870195e-01  6.01060510e-01 -1.17407992e-01  5.14415875e-02
  -9.69156176e-02 -4.74683195e-01  7.16793358e-01  1.26482010e-01
   1.84677038e-02 -2.82695182e-02 -7.63957426e-02 -3.43679279e-01
   9.11122840e-03 -7.13740960e-02  9.35976326e-01  9.10654664e-03
  -1.28262007e+00  4.31854464e-02 -1.29967049e-01 -7.28495955e-01
  -1.91260949e-02  2.99271308e-02 -1.16247606e+00  7.08813295e-02
  -4.17651862e-01  5.51179111e-01 -1.39590949e-02 -4.99512464e-01
   1.28150657e-01  6.38132915e-02 -1.74765691e-01  7.81681061e-01
  -6.76784456e-01 -4.16599624e-02 -3.78524899e-01  6.72939599e-01
   4.88591909e-01  5.45175076e-02 -5.22181749e-01 -9.28994656e-01
   5.36502898e-01 -2.47317046e-01  6.42510176e-01  5.86875342e-02
  -1.85799733e-01  1.37925327e-01 -2.63251632e-01  9.06387985e-01
   2.05053672e-01  2.01284215e-01 -8.10861513e-02  5.42309284e-01
   4.63564396e-01  5.01079150e-02 -1.92087576e-01 -5.81352822e-02
  -7.47715116e-01 -1.41567075e+00 -1.47522181e-01  2.53202260e-01
   1.55953616e-01  1.66099548e-01  9.71507132e-01 -2.33948417e-02]
 [ 9.76958647e-02  7.68629491e-01  3.03357281e-02 -2.74743021e-01
   6.03508413e-01  4.71905977e-01 -1.90343149e-02 -4.44521636e-01
   4.11837548e-02 -4.32716727e-01 -7.42285252e-01  5.33242933e-02
  -2.65167177e-01  1.59038842e-01  1.37494400e-01 -7.30184436e-01
  -1.02702424e-01  2.42603570e-01  4.71370429e-01 -4.35731523e-02
  -4.65303600e-01 -4.26987857e-02  7.77606547e-01 -4.23551649e-02
  -6.19217418e-02 -1.05712324e-01  2.14471146e-01  4.49383020e-01
  -8.15407094e-03  4.77373630e-01  3.72671723e-01 -1.02262652e+00
   6.53095022e-02 -1.61645383e-01  1.14106648e-01  4.21589762e-01
   3.87635112e-01  1.40970126e-01 -3.20251405e-01 -1.22604974e-01
   3.33279580e-01 -1.99160516e-01  1.97050408e-01  3.47612649e-01
   3.88860375e-01 -2.05640033e-01  1.68107793e-01  3.20873111e-01
  -9.23988968e-02 -8.85648802e-02 -1.32453874e-01 -7.07194626e-01
  -4.66268286e-02  5.01267552e-01  3.52480590e-01 -3.68268669e-01
  -2.25403924e-02  1.98238119e-01 -4.46976334e-01 -2.81282328e-02
  -1.63730368e-01 -1.93366438e-01 -4.43666428e-02  2.43487582e-02
   1.34433925e-01  4.24712628e-01  2.89008200e-01  1.70690790e-01
   1.37173846e-01 -1.26946747e-01  3.15565467e-01  2.05448583e-01
   6.88683912e-02 -4.75325100e-02  6.02964312e-03 -1.15802720e-01
  -4.51386601e-01  2.46683285e-02  2.01084957e-01  6.91216886e-01
   8.74312073e-02 -2.90519029e-01 -5.16880415e-02 -5.75209677e-01
   1.17657343e-02  3.45968828e-02  2.41026402e-01 -1.85403600e-02
   1.36780068e-01  4.91135210e-01  2.08178759e-01 -2.36335292e-01
   3.21228445e-01 -2.42969915e-01 -1.10674679e-01  4.01386060e-02
  -1.49917096e-01  4.11914624e-02 -8.76852870e-02  5.12561381e-01
   2.83685327e-01  6.98235333e-02 -3.32177222e-01  3.03162545e-01
   7.07401454e-01  4.17637885e-01  3.89527231e-01 -6.83811009e-02
   4.60323870e-01 -6.70124292e-02 -1.82692215e-01 -4.45767939e-02
  -1.07872397e-01 -2.72470117e-01 -2.04721659e-01  8.62717032e-02
   1.09638803e-01 -9.29373130e-02  2.44491860e-01  3.10112208e-01
  -4.95477676e-01 -3.89437258e-01 -5.74424684e-01  5.67207992e-01
   3.70507300e-01  3.06617737e-01  4.86727268e-01 -1.10737480e-01]
 [-5.83986580e-01  3.31357837e-01  2.21148819e-01 -8.17354918e-02
   5.37775934e-01 -4.43592072e-01 -4.16867167e-01 -1.65400550e-01
  -3.83234531e-01 -1.68195665e-01 -7.15347826e-01  7.54829824e-01
  -2.17812195e-01  4.23940629e-01  4.32494789e-01 -3.11705381e-01
  -1.84821248e-01  1.31790832e-01  3.18547159e-01 -4.15234156e-02
  -3.48157376e-01 -1.27810007e-02 -5.95609099e-02 -3.39509726e-01
  -3.31280857e-01 -5.64911067e-02  1.63760945e-01 -1.16685808e-01
   6.91958005e-03  1.39486551e-01  4.20168519e-01 -1.31407094e+00
   3.79508585e-02 -3.65771055e-01  5.06320834e-01  4.47419077e-01
   2.18699798e-02  4.54745442e-01 -3.35059851e-01  3.43021482e-01
   1.01112165e-01 -1.57570168e-01  1.09722227e-01  3.09431851e-01
   6.62188828e-01 -3.51186782e-01  2.21497267e-01  2.59000778e-01
  -1.90147117e-01  5.04298843e-02 -7.18241930e-03 -6.60776675e-01
   4.07806903e-01  1.77224219e-01  2.63831466e-01 -1.82161823e-01
   5.01104407e-02  7.38272965e-01 -1.87662154e-01  1.76485583e-01
  -3.42008397e-02 -4.93012905e-01  4.17079963e-03  6.35110810e-02
  -5.36734223e-01 -7.48733878e-02  6.48904219e-02  1.56185627e-01
   1.56214491e-01  6.72054961e-02 -3.58455896e-01  2.02780128e-01
   2.29620393e-02  3.49606127e-02  4.20286804e-02  1.20081648e-01
  -4.26571250e-01  4.53286394e-02 -2.01514184e-01  3.42086554e-01
   1.44347712e-01  2.96893239e-01 -5.90843856e-02 -4.48400527e-01
   4.49642465e-02  3.04712337e-02  3.12214613e-01 -5.64927049e-02
   5.55382669e-01 -9.83735174e-03  4.75639224e-01  2.71394521e-01
   1.99549749e-01 -2.41962790e-01  2.15953916e-01 -4.94963646e-01
   1.43892929e-01 -3.42891991e-01  2.74268419e-01 -2.48439416e-01
  -1.27803281e-01  3.28020304e-01 -1.12402804e-01  5.39834738e-01
   2.78634459e-01  4.20445710e-01  2.92535752e-01  3.70361537e-01
   9.42602903e-02  4.49457392e-03  6.27693310e-02  1.74104452e-01
   3.45013112e-01 -3.19526017e-01 -1.03772783e+00 -7.33661830e-01
  -8.63498509e-01 -3.23311508e-01 -5.59507273e-02 -1.63762808e-01
   4.93858904e-01  6.90479219e-01 -3.60768199e-01  2.45507896e-01
   4.82373416e-01  1.42750600e-02 -1.96833506e-01 -2.56502241e-01]
 [ 9.04867873e-02 -2.26039231e-01  3.18869352e-01 -9.19984207e-02
  -4.19149920e-02 -6.86957181e-01 -3.26383889e-01  5.87676525e-01
  -3.64532441e-01  3.57584268e-01 -8.27926993e-01  4.79343325e-01
   3.70444685e-01 -5.62468208e-02  2.29255736e-01  1.93578541e-01
   2.04543039e-01  5.13015151e-01 -4.36953336e-01  5.62145293e-01
   5.53837597e-01  9.06069588e-04  7.70243583e-03 -7.27201223e-01
  -5.49291372e-01  3.81970704e-01  2.37310320e-01  1.67816609e-01
  -8.01054388e-02 -3.19741070e-01  3.36520299e-02 -1.28849745e+00
   3.68328989e-01 -1.34181708e-01  1.83279276e-01  2.25908849e-02
  -8.62292275e-02  2.51776755e-01 -3.58800113e-01 -4.28258702e-02
   1.41986310e-01  2.53910005e-01  1.76475793e-01  4.38758075e-01
   3.12512159e-01 -6.08478069e-01  1.47311240e-01 -3.02191287e-01
  -4.60486263e-01 -4.72621769e-02  3.22575718e-01 -1.02777910e+00
   6.13130093e-01  3.49691838e-01  3.86981815e-01  9.76458117e-02
   8.67501833e-03  6.38542593e-01 -5.43630198e-02  3.47365230e-01
   2.17797533e-01 -2.58365035e-01 -2.62146983e-02 -2.36045644e-02
  -1.28388226e+00 -7.03684092e-02 -1.86362237e-01  2.60577500e-01
   4.66021240e-01  1.80905521e-01 -3.18251073e-01  2.12103844e-01
   2.40431279e-02  3.72674363e-03 -6.68205544e-02  3.30486238e-01
  -1.54741958e-01 -4.95600738e-02 -6.53815627e-01  2.95800805e-01
  -4.28542383e-02  4.48530823e-01 -2.44368911e-01 -3.91745046e-02
  -7.94101059e-02 -5.34486584e-02  2.16112271e-01 -1.91789344e-02
   2.25914061e-01  3.76396403e-02  4.62654859e-01  8.47481415e-02
   2.59384423e-01 -5.58736175e-02 -2.95436382e-01 -1.00524616e+00
   1.86633497e-01 -3.14474478e-02  1.76839709e-01  2.06631839e-01
   9.35331210e-02 -6.61788601e-03 -3.17245990e-01  1.96594745e-01
   1.22827003e-02  9.90883037e-02  8.76930803e-02  7.41113067e-01
  -1.61469728e-01  4.21587080e-01  4.49760705e-01 -1.49124060e-02
  -1.94994077e-01 -5.97907186e-01 -1.11980677e+00 -1.00356972e+00
  -1.49533212e+00 -2.30221927e-01 -3.71189773e-01 -1.30907074e-01
   2.04506382e-01  5.98369777e-01 -5.00142455e-01  2.06474870e-01
   3.23364913e-01 -8.04319680e-02 -4.20451611e-01  2.90766265e-02]
 [ 1.84252068e-01 -1.00484364e-01  1.71320960e-01 -7.40015358e-02
  -7.12209716e-02 -8.60344589e-01 -4.19069380e-01  6.29702270e-01
  -4.46932137e-01  6.17827833e-01 -6.74681306e-01  5.54634392e-01
   2.06337854e-01  9.48983654e-02  1.02597673e-03  3.96496296e-01
   1.98118776e-01  4.98234928e-01 -6.56089187e-01  5.31744659e-01
   9.37669098e-01 -7.70637169e-02  3.13693762e-01 -8.52804124e-01
  -5.66984832e-01  7.04321027e-01 -6.90138564e-02  3.31414938e-01
  -1.53139457e-02 -5.80302954e-01  2.30038371e-02 -1.09877706e+00
   3.24639589e-01  3.39762539e-01 -7.18957139e-03  1.89064711e-01
   2.69662172e-01  9.12879687e-03 -4.78327245e-01 -3.82335186e-02
   5.95873117e-01  1.66311398e-01  4.96754885e-01  4.01528209e-01
   4.03992206e-01 -5.19051492e-01 -8.41638222e-02 -1.02045238e-02
  -7.50165999e-01 -1.43637024e-02  2.92847037e-01 -9.23508584e-01
   2.84387469e-01  3.49885404e-01  1.45281166e-01  8.07836875e-02
   1.38957649e-02  5.93788266e-01 -1.59281328e-01  3.29738289e-01
   2.53099859e-01  1.04648821e-01 -1.28447246e-02 -1.34358136e-02
  -1.27585185e+00 -4.67795849e-01  1.44419983e-01  2.73021758e-01
   4.09299284e-01  2.55999237e-01 -2.06272021e-01  5.64769655e-02
  -4.28035408e-01 -3.41659412e-02 -4.13307808e-02  1.06367610e-01
  -1.75646707e-01 -7.20635429e-02 -7.54625797e-01  4.14440662e-01
  -2.00429354e-02  1.43914655e-01 -1.65530547e-01  1.76057652e-01
  -3.77425575e-03  3.64192016e-02  4.78074402e-01 -7.55970702e-02
  -1.27564203e-02 -2.06249923e-01  3.58177483e-01  1.25721171e-01
   4.04327631e-01 -1.92579627e-01 -5.70244133e-01 -1.00114620e+00
  -2.23735832e-02 -2.48977661e-01  3.77622306e-01  2.01833069e-01
   1.44232839e-01 -1.90732274e-02 -3.10676336e-01  2.49316871e-01
   2.26250470e-01  6.84959963e-02  1.80802464e-01  9.59859371e-01
  -3.82007390e-01  3.12632084e-01  2.76389718e-01 -2.58936193e-02
   5.38581200e-02 -5.64101398e-01 -1.16531837e+00 -8.36352289e-01
  -1.53836668e+00 -1.14826590e-01 -2.47727752e-01 -9.45860147e-03
   1.39131472e-01  5.88377297e-01 -5.58672249e-01  2.11451948e-01
   1.39849022e-01 -2.24319994e-01 -3.80746484e-01  3.99185717e-01]
 [-1.89677387e-01  1.74031705e-01  3.24243963e-01  4.15674923e-03
   4.42094415e-01 -5.27623117e-01 -5.49357951e-01  1.41450554e-01
   2.02032387e-01  8.89119282e-02 -7.01370120e-01  7.26774991e-01
   1.55120820e-01  1.44267797e-01  7.15088546e-01 -3.48140895e-01
  -1.23869322e-01  2.67555088e-01 -9.87747237e-02  2.59452075e-01
   5.23397028e-01 -1.01307951e-01  1.54573500e-01 -2.71611005e-01
  -6.71593666e-01  3.20606709e-01  1.61752030e-01 -1.59479737e-01
  -7.69942552e-02 -1.45981058e-01  2.25078508e-01 -1.02766824e+00
   2.02909544e-01  1.06938079e-01  2.94593632e-01  3.12186718e-01
   1.31001741e-01  5.62767684e-02 -4.75199133e-01  1.16574354e-01
  -1.50086612e-01 -1.92505401e-02  2.13880509e-01  1.06611073e-01
   6.28216743e-01 -2.79576451e-01  1.71004802e-01  9.23929960e-02
  -7.78436363e-01 -6.09037317e-02  1.25947106e-03 -8.23113739e-01
   9.67320800e-02  3.93405914e-01  1.42759949e-01 -3.14362377e-01
  -1.36591718e-02  5.43278575e-01  1.01086333e-01  3.12880903e-01
   3.09240669e-01  2.58302744e-02 -6.07017167e-02 -6.42596632e-02
  -9.34690177e-01  1.03261404e-01  7.39413723e-02  6.76037520e-02
   6.83459863e-02  2.02341497e-01 -2.64856070e-01  3.17122966e-01
   2.93099880e-01 -5.66713922e-02 -2.34142914e-02  3.61360252e-01
  -2.70323753e-01  1.43243996e-02 -5.04124701e-01  1.23737201e-01
   2.38396347e-01 -4.33750361e-01 -9.30545777e-02 -4.21932578e-01
  -8.37636515e-02  4.35411260e-02  1.77807987e-01 -1.57412142e-03
   3.59018117e-01 -2.12150723e-01  4.07644302e-01  2.54128546e-01
   2.91353524e-01 -1.74604475e-01 -1.87926441e-02 -6.11808300e-01
   2.32434586e-01 -1.98203415e-01  2.11750165e-01  1.83747068e-01
   1.06054910e-01  3.46516132e-01 -9.48336720e-02  4.03960764e-01
   1.95804656e-01 -2.00651363e-02  4.33921486e-01  5.36876976e-01
  -3.89447093e-01 -3.91818285e-02  2.21097410e-01 -1.04583941e-01
   6.05602898e-02 -5.51042736e-01 -1.15086830e+00 -5.36636889e-01
  -9.11129296e-01 -3.43816549e-01 -1.05687395e-01  9.57987532e-02
   2.96256036e-01  7.21135080e-01 -5.56048274e-01  8.63165781e-02
   4.76125538e-01  4.18288082e-01 -8.24151784e-02  1.33141531e-02]
 [-4.25644964e-02 -1.62573263e-01  3.33888471e-01 -1.38826653e-01
   9.97863486e-02  4.14259434e-01 -1.85532585e-01 -1.11001186e-01
  -4.73668158e-01 -3.64983231e-01 -6.15035832e-01  4.02094275e-01
   2.30827019e-01  3.93517822e-01  1.42082363e-01 -2.15279713e-01
   1.61754191e-01  1.80942163e-01  3.15967441e-01  2.84493327e-01
  -6.24225754e-03 -1.79710388e-02  4.62700725e-01 -2.81100236e-02
  -2.24503815e-01  1.16801009e-01  2.53169298e-01  4.71747786e-01
   4.81839739e-02  5.23243010e-01  5.11661023e-02 -1.05320942e+00
  -3.09209436e-01 -5.44809163e-01 -2.07920209e-01  2.06676960e-01
   6.06323659e-01  1.32736340e-01 -3.03107858e-01 -8.89398903e-02
  -5.48747443e-02 -1.26238028e-02  1.43818587e-01  2.16654703e-01
   1.70356408e-01  3.30052286e-01  2.83426434e-01  5.39143443e-01
  -5.37375212e-01  6.49362430e-02  1.38764933e-01 -8.90464246e-01
   2.92582780e-01  3.49426806e-01  3.56976278e-02 -5.57912409e-01
   4.81640697e-02  2.54724413e-01 -5.01913838e-02  2.90498883e-01
   3.33547294e-01 -1.07995018e-01 -5.71852289e-02  1.73487794e-02
  -2.89599806e-01  6.17701769e-01  6.63419843e-01  1.53493762e-01
   5.44615090e-02 -4.78221430e-03  7.09656551e-02 -1.12962365e-01
   4.28647459e-01 -7.57735968e-02  6.88503012e-02 -1.15836218e-01
  -7.17405140e-01  7.21934065e-02 -3.36109996e-02  2.22801626e-01
   1.12054497e-01 -6.35740399e-01  3.10602248e-01 -5.37653565e-01
   1.65472124e-02  7.82782212e-02 -3.87293488e-01 -1.98993608e-02
  -2.79979020e-01 -1.11876436e-01 -6.17932677e-02  1.16645349e-02
   4.08137292e-01 -1.02126926e-01 -1.60087019e-01 -4.08627957e-01
  -8.44049975e-02 -1.98487267e-01  4.91889268e-01  4.56041873e-01
   1.50632381e-01  5.30544817e-01 -1.14638224e-01  1.27131477e-01
   6.15559042e-01 -6.44412786e-02  6.10460103e-01 -2.73408204e-01
  -2.93500751e-01 -1.00340545e-01  9.03180391e-02  1.91723764e-01
   1.17389426e-01 -2.84829199e-01 -4.58023161e-01  7.99392983e-02
   5.28000951e-01 -1.25309631e-01  3.59717250e-01  1.70882076e-01
   4.99964356e-02  6.52623996e-02 -5.67650378e-01  5.52931726e-01
   6.26290202e-01  5.06753027e-01  8.64719391e-01  2.23146707e-01]
 [-4.29186299e-02  1.60898805e-01  2.11061701e-01 -2.39078835e-01
  -1.79795668e-01  4.35303867e-01  1.00284338e-01 -4.26555574e-01
   1.79087475e-01 -5.74834168e-01 -1.06150061e-01  1.91196248e-01
  -3.08601052e-01  1.77596822e-01 -2.28934482e-01 -6.31493211e-01
   6.11279368e-01  7.16650710e-02  3.54732394e-01  4.27897781e-01
  -9.69690382e-02 -1.31864786e-01  4.17478710e-01  9.08434242e-02
  -2.66278591e-02 -4.61734831e-01  3.20962310e-01  3.02646875e-01
  -1.66663725e-03  3.21462095e-01 -1.76047295e-01 -5.67685030e-02
  -5.39282739e-01  4.59961712e-01 -1.55813307e-01  3.55212569e-01
   5.55302501e-01 -1.08561823e-02  8.05850029e-02  1.05738640e-01
  -3.57622534e-01 -4.19833735e-02  2.14953959e-01  1.47901043e-01
  -4.66207452e-02  2.60672253e-02  6.67900220e-02  4.29049253e-01
  -1.57577455e-01 -3.04514803e-02  2.50323325e-01 -9.14299846e-01
   3.97278160e-01  3.42831671e-01 -4.66398299e-02 -5.42199254e-01
  -3.51812690e-02 -3.01534683e-01 -3.16296846e-01  2.66733050e-01
   1.17275476e-01  3.19915265e-01  7.20594777e-03  5.93761578e-02
   3.08084965e-01  5.34696162e-01  6.02624178e-01 -5.16411439e-02
   1.91128880e-01  1.36967033e-01  3.38387370e-01  1.49408191e-01
   2.93865412e-01 -2.34400555e-02  3.75933647e-02 -1.72096923e-01
  -7.70411313e-01 -4.19682302e-02  6.37827694e-01  1.29372939e-01
  -5.38232148e-01 -3.44328314e-01  2.10625559e-01 -2.11939633e-01
   8.12888891e-03  2.00817976e-02 -1.42021191e+00 -1.92315131e-02
  -3.91122758e-01 -1.12590574e-01  1.61493029e-02 -3.86344612e-01
  -7.88712576e-02 -1.27628550e-01 -6.84105814e-01  1.75225511e-01
  -3.86084691e-02 -8.58668983e-02  4.43799198e-01  3.50803137e-01
   4.18300666e-02  6.81239665e-01 -5.70125103e-01 -2.38765150e-01
   5.49868345e-01 -2.37328440e-01  3.37681234e-01  2.02827722e-01
  -4.40707147e-01  1.19443573e-01  4.80514467e-02  4.15209353e-01
   1.54731855e-01 -4.52100724e-01 -4.10567105e-01  5.64139128e-01
   9.38178241e-01  2.71109611e-01  1.12552166e-01  4.05980051e-01
  -1.17314756e-01 -4.16180044e-01 -1.71748891e-01  6.26950383e-01
   4.63011831e-01 -1.05250459e-02  6.95259035e-01  3.11827898e-01]
 [ 4.59120154e-01  7.17538968e-03  2.40875155e-01  6.27566993e-01
  -4.06868607e-01  2.90766239e-01  2.78644025e-01 -5.62698431e-02
  -4.02031280e-02 -4.42973793e-01  3.09633195e-01 -1.86976820e-01
  -5.49812354e-02  3.17881465e-01 -2.54026175e-01 -5.79349399e-01
   4.51061755e-01  2.36871272e-01 -1.39683828e-01  2.52411634e-01
  -1.17418855e-01 -1.30811259e-01 -1.97393373e-01  1.59036636e-01
   1.17544807e-01 -3.64881516e-01  3.02610874e-01  3.72687817e-01
  -5.37110530e-02  2.67024547e-01 -2.16445863e-01  2.36946151e-01
  -5.00933528e-01 -4.67592478e-01 -9.42953750e-02  1.21564999e-01
   2.36474171e-01 -5.40762365e-01  3.56611073e-01 -7.35515058e-02
  -2.64245691e-03 -1.40593424e-01  3.20339918e-01  3.18662614e-01
  -3.51125658e-01  1.19081177e-01  2.78204679e-01 -2.04409912e-01
  -1.70635432e-01  3.78979258e-02  4.45194662e-01  1.08677790e-01
   3.75728220e-01  5.33738911e-01 -1.05304100e-01 -3.55494320e-01
  -8.39251056e-02 -2.61418790e-01 -6.14103436e-01 -8.10806677e-02
  -4.55011688e-02  5.42169869e-01  5.97550981e-02  6.84745386e-02
   1.46588385e-01  3.74428242e-01  4.31335233e-02 -1.71228349e-02
  -1.69249341e-01  8.78427327e-02  4.07322049e-01  9.72635224e-02
  -1.34420648e-01  3.03304242e-03 -2.52771899e-02 -7.05686629e-01
  -3.66181850e-01 -3.05188745e-02  6.03490174e-01 -4.05050427e-01
  -7.33452380e-01  1.69323757e-01  3.45652610e-01 -1.48589104e-01
  -7.15096742e-02 -4.02134359e-02 -8.13003421e-01  3.94331515e-02
   9.33932215e-02 -2.81619638e-01  3.14061165e-01 -5.77265143e-01
   4.40706164e-01 -1.04157060e-01 -1.10863304e+00  4.49511021e-01
  -3.30756873e-01 -1.23355843e-01 -3.66383418e-02  3.47970307e-01
   4.08313066e-01  2.55486548e-01 -4.51135546e-01 -2.08830670e-01
   1.75485402e-01 -2.21981630e-01  3.82498115e-01 -4.71211284e-01
  -3.16865742e-01  1.45889044e-01 -4.56896305e-01  4.76419955e-01
  -4.53004912e-02 -1.23846360e-01 -2.45350048e-01  2.69935459e-01
   7.64521658e-01  3.23005378e-01 -3.62438589e-01 -1.10847123e-01
  -4.77674216e-01 -1.10605335e+00  1.83332548e-01  3.58435124e-01
   6.70549572e-02 -7.15684295e-02  2.26871371e-01 -4.80273403e-02]
 [ 6.42740667e-01 -3.46270680e-01  4.45722371e-01  9.18370783e-01
  -8.43711555e-01  9.15508419e-02  7.53391087e-01  4.98786509e-01
  -4.30396229e-01  3.83900106e-02  2.85696507e-01 -2.31245548e-01
  -1.50279269e-01  2.09878236e-01 -2.26970501e-02 -5.13906002e-01
  -6.09390140e-01 -1.65411994e-01 -6.37768626e-01  5.58721498e-02
  -1.42983064e-01 -1.62639260e-01 -4.54988599e-01  4.95696701e-02
   6.17122412e-01  7.21878260e-02 -2.76855320e-01  5.99710822e-01
  -3.36452723e-02  2.15637479e-02 -5.84672987e-01 -2.08211586e-01
  -4.55289871e-01 -2.46807709e-01 -2.48171434e-01 -1.34367451e-01
   1.61196157e-01 -8.53883803e-01  7.29027331e-01 -5.18241584e-01
   1.10266551e-01  1.55171856e-01  2.60668248e-01  5.82567573e-01
  -9.30727184e-01  4.26662445e-01  3.65763843e-01 -3.14906120e-01
  -1.62382931e-01 -1.04340002e-01  7.11111605e-01  7.00881720e-01
   3.07194859e-01  7.03803971e-02  1.39214620e-01  1.24509275e-01
   2.67153271e-02  6.15284264e-01 -1.30168915e+00 -2.71119386e-01
  -6.25200331e-01  4.59145248e-01 -1.26489755e-02  1.24613214e-02
  -1.22576557e-01  2.67938226e-02 -2.87005275e-01 -1.73114240e-01
  -1.92614179e-02 -1.96760446e-01  2.32993513e-01 -1.00019559e-01
  -5.03427804e-01  5.44767380e-02  1.47373304e-02 -4.84371722e-01
  -2.75183111e-01  6.20247200e-02  1.37016729e-01 -4.86268789e-01
   2.92599685e-02  1.32371530e-01 -1.73710287e-01  1.49167672e-01
  -1.53087582e-02  1.49044953e-02 -1.62668765e-01 -1.22733414e-02
  -5.29893398e-01 -6.27309904e-02  3.11444886e-02 -4.89749670e-01
   4.13447142e-01  9.97021422e-02 -8.04157853e-01  6.63982630e-01
  -1.03108060e+00  4.72500175e-02 -6.32039607e-01  5.13540864e-01
   7.06444621e-01 -2.01961458e-01 -1.72454804e-01 -2.47805163e-01
  -1.32918656e-02  5.37928879e-01 -1.92838628e-03 -3.96464944e-01
  -3.41837071e-02  9.12624747e-02 -8.07178617e-01  2.99962521e-01
   9.50672269e-01  3.89357805e-01  2.35513449e-01 -3.01182240e-01
  -1.26896173e-01  9.28292096e-01 -3.95922899e-01  8.02721903e-02
  -1.46540865e-01 -9.74352181e-01 -1.11749068e-01  2.26608947e-01
   2.33224809e-01  3.41562122e-01 -4.85092312e-01  8.09085071e-02]
 [ 6.33147418e-01 -5.93581975e-01  5.51317811e-01  8.21480870e-01
  -8.86604011e-01 -1.56123474e-01  5.48119992e-02  5.59946477e-01
  -5.69197178e-01  2.43306562e-01 -2.30263874e-01 -5.42622328e-01
  -6.73402250e-01  5.01555145e-01  5.57745576e-01 -1.80648255e+00
  -8.93631697e-01 -2.37993270e-01 -3.79736990e-01 -7.05504000e-01
  -6.07134461e-01 -9.09879729e-02  2.51933336e-01  1.88552558e-01
   5.61825752e-01  4.40377176e-01 -7.53768325e-01  1.02677173e-03
   2.28027510e-03 -3.34018737e-01 -5.00564039e-01  1.64405465e-01
  -4.14737910e-01  2.24378392e-01 -7.04395175e-02 -6.10424757e-01
   5.53631842e-01 -7.74185359e-01  2.49263808e-01 -2.44833484e-01
  -1.03243828e-01 -5.28117493e-02  8.20090324e-02 -3.04568738e-01
  -9.34731126e-01  5.70482433e-01 -4.77801770e-01  8.19956213e-02
  -8.25745404e-01  3.81273814e-02  8.08154702e-01  2.57527888e-01
   2.28508592e-01 -4.49332874e-03 -4.13932711e-01  1.38124838e-01
  -6.88786358e-02  7.58997858e-01 -1.42013872e+00 -2.18868867e-01
  -6.56549156e-01  9.75197673e-01  5.12878858e-02  6.40993938e-02
  -1.66317686e-01  2.35241920e-01 -2.71174580e-01 -1.38463989e-01
  -6.19563162e-01  6.13408312e-02  3.04984838e-01 -3.50769341e-01
  -2.97139823e-01 -4.06836420e-02 -4.64128479e-02  2.50413656e-01
  -9.81930792e-02  6.34062961e-02  2.29437247e-01  1.81832448e-01
   2.89587677e-01 -2.74922818e-01 -5.19770570e-02  2.11149141e-01
  -3.45228314e-02 -2.74424888e-02  5.26261508e-01  1.49178952e-02
  -7.83209264e-01 -4.18887198e-01  4.23664182e-01 -8.94228578e-01
   2.33903885e-01 -9.64920297e-02 -1.00085568e+00  8.82263899e-01
  -6.29526377e-01 -6.91877306e-02 -3.83683324e-01  7.18572617e-01
   2.18205377e-01 -3.26762795e-01 -1.41297728e-01  1.15288928e-01
   1.47224665e-02  6.25906289e-01 -5.76101243e-01 -1.61902308e-01
   1.51390031e-01  4.33640957e-01  1.54424282e-02  1.49722829e-01
   1.33012903e+00  2.87521034e-01  7.46072769e-01 -1.17376134e-01
   3.98522876e-02  6.60803974e-01  4.54460651e-01  3.71387184e-01
  -8.89896043e-03 -1.12225127e+00 -4.53517020e-01 -1.74608946e-01
   6.69793308e-01  5.11842966e-01 -1.67104438e-01  2.88706660e-01]
 [ 4.80216771e-01 -5.15343130e-01  5.37280560e-01 -1.06261196e-02
  -2.80867606e-01  6.17341459e-01 -5.98805428e-01  1.16273478e-01
  -8.61200392e-01 -5.23803949e-01 -1.02181554e-01  2.61430033e-02
   9.56028104e-01  3.11937749e-01  8.24955523e-01 -6.89254999e-01
  -5.43631732e-01  1.63258582e-01  4.78288174e-01 -6.26277387e-01
   1.26640290e-01 -6.63833320e-02  6.97761595e-01  2.33640715e-01
   4.25223887e-01  4.10440743e-01 -1.07558496e-01 -1.33770630e-01
   1.18213110e-02  3.77023220e-01 -1.20155245e-01 -1.67784974e-01
   4.00259532e-02  4.52350706e-01  3.77889812e-01 -5.69190979e-01
  -2.29836434e-01 -1.01791000e+00  2.04285800e-01 -3.99789542e-01
   2.07651377e-01 -4.16726381e-01  3.31022471e-01  1.22538440e-01
  -3.01319569e-01  3.48319523e-02 -1.02593422e+00 -5.70760190e-01
  -4.76155847e-01 -8.38085189e-02  8.89993727e-01 -1.68274418e-01
   1.07472409e-02  1.28020495e-01 -1.02545846e+00  1.17224433e-01
   2.56065354e-02  1.28366262e-01 -1.06742823e+00 -1.03708906e-02
   2.48015016e-01  4.67584461e-01 -1.87865905e-02  7.24936575e-02
  -3.62869322e-01  1.15285814e+00 -1.53821647e+00  1.34133324e-01
  -9.91977513e-01  2.05759153e-01 -3.72335583e-01 -4.97155935e-01
   5.32085538e-01 -1.44101400e-02 -4.84565981e-02  3.77456874e-01
  -2.34130383e-01  2.78179348e-02  2.81178445e-01 -4.28062826e-01
   1.03956051e-01 -4.46147025e-01 -7.42391884e-01  4.35777038e-01
  -1.36861559e-02 -9.63188766e-04  5.93120575e-01  2.34491602e-02
  -1.90939486e-01 -3.79504979e-01  5.67955375e-01 -9.79911745e-01
   3.92188430e-01  1.61485851e-01 -5.70543885e-01  3.39953274e-01
   3.23650420e-01 -4.38407995e-02 -4.98737454e-01  1.26909137e-01
  -4.44354080e-02 -2.85846531e-01 -9.75627005e-01 -2.21241787e-01
  -6.75560355e-01  5.63485444e-01 -3.55934113e-01 -1.19605482e-01
   8.73708948e-02  5.80714583e-01 -8.55719447e-01 -6.97299838e-01
   2.95054913e-01 -3.65317017e-01  3.88235599e-01  3.59280467e-01
   3.96635905e-02  4.55867201e-01  5.30680418e-01  2.29126602e-01
   6.00965440e-01 -3.65796238e-01 -3.29021186e-01 -2.64966726e-01
   1.09766245e+00  8.49951923e-01  1.05737768e-01 -1.17440119e-01]
 [ 1.32254049e-01  7.37933069e-02  7.40664542e-01  1.39667600e-01
   1.66081011e-01  2.77951688e-01  1.51293904e-01  2.01979522e-02
  -3.20764363e-01 -1.42914191e-01  1.36810303e-01  2.06794024e-01
   6.01697803e-01 -3.86076868e-01  2.55427033e-01 -7.94508576e-01
  -2.54668534e-01  6.12000287e-01 -1.74339756e-01 -4.34157163e-01
   3.61292422e-01 -7.53963590e-02  9.70543802e-01 -1.34982184e-01
   4.88304347e-01  1.03089765e-01 -1.00397833e-01 -3.03710904e-02
  -7.24420175e-02  5.73892891e-02  6.11384213e-02 -4.65467632e-01
   8.96905661e-02  2.28122160e-01  5.62063277e-01 -7.24441648e-01
  -1.38458610e-01 -9.68726294e-04  3.33457738e-01 -3.77185762e-01
   3.73090088e-01 -5.87526381e-01  2.01835528e-01  1.82611987e-01
   3.77688378e-01  6.32319093e-01 -6.18591309e-01  3.19621302e-02
   2.26024643e-01  3.83704975e-02  6.13135159e-01  2.51105398e-01
  -1.30674928e-01  4.02730048e-01 -1.41836509e-01  9.00710896e-02
   4.66016531e-02 -4.83145982e-01 -4.17880952e-01 -1.97331663e-02
   1.34414479e-01  2.23596141e-01 -7.04270676e-02  3.46156023e-02
   6.78490549e-02  7.38598406e-01 -1.36550319e+00  1.07367925e-01
  -2.42969841e-01  5.58950782e-01 -5.14513515e-02 -1.14272878e-01
   3.74888867e-01  1.09767448e-02  7.94007555e-02 -3.85589570e-01
  -1.99929439e-02  3.63061726e-02  4.49939638e-01 -4.18127924e-01
   3.68655562e-01 -5.17999083e-02 -1.16440046e+00  3.26206595e-01
   5.81434183e-02  7.00992066e-03  4.50087115e-02  7.44992271e-02
   3.27089518e-01  2.84398586e-01  4.78293985e-01 -3.20127696e-01
   1.79142520e-01  2.58177340e-01  2.65675783e-01 -3.14421862e-01
   3.67596090e-01  2.35428587e-01 -2.61646450e-01  2.98613310e-01
  -1.96945533e-01 -4.83429544e-02 -2.64378965e-01  2.52067056e-02
  -6.71240807e-01  8.64155114e-01 -1.04948007e-01 -3.01415086e-01
  -5.90007901e-02  4.80655730e-01 -2.92715669e-01 -9.31024373e-01
  -4.50026840e-01 -8.83126378e-01  1.74775183e-01  1.63641512e-01
  -3.75928789e-01  2.44603887e-01 -3.32173472e-03  5.02381139e-02
   7.30237365e-01  3.99332434e-01 -1.91021457e-01 -4.67502892e-01
   5.95602989e-01  1.21858567e-01  3.14945102e-01  3.61783803e-01]
 [ 7.92228207e-02  4.77144390e-01  4.87740070e-01 -4.68305685e-02
   8.03971887e-01  9.35951993e-02  5.34513772e-01 -4.48833674e-01
  -8.11598375e-02 -1.93919018e-01  6.43858910e-01  9.67802033e-02
  -7.97734141e-01  2.10997704e-02  7.25384116e-01 -8.07488561e-01
  -6.88107014e-02  4.80772197e-01 -2.89581232e-02 -7.58949816e-01
  -2.46802241e-01 -1.38107866e-01  1.15907930e-01 -1.64087743e-01
   2.73813128e-01 -4.79069442e-01 -5.42857170e-01  4.07970995e-02
   4.47144285e-02 -6.59900755e-02  4.13749926e-02 -1.87082618e-01
   5.13932288e-01  2.25679919e-01  5.72741330e-01 -2.58602917e-01
  -1.72193915e-01  5.62436104e-01  3.54215205e-01 -2.18288988e-01
   2.03316063e-01 -1.41274795e-01 -2.04176068e-01 -2.36166101e-02
   1.01620841e+00 -2.11536527e-01  2.79727787e-01 -2.99100101e-01
   4.77076173e-01  4.35522236e-02  3.92906368e-01  3.84534091e-01
  -2.60300696e-01  6.65871948e-02 -3.49339724e-01 -1.41006410e-01
  -6.90253824e-03 -3.28272998e-01 -5.70241928e-01  5.79803735e-02
   4.79694940e-02  2.16858275e-02 -1.29939970e-02 -8.37640837e-02
   4.72108036e-01  1.03109872e+00 -3.73307467e-01  1.64082274e-01
  -4.66818243e-01  7.65569210e-02 -5.56765832e-02  1.04712076e-01
   1.19963908e+00  5.52204028e-02 -6.42261878e-02 -7.35722125e-01
  -3.05990689e-02  7.29595125e-03  3.68765950e-01 -2.37077951e-01
   1.03716743e+00  1.07842810e-01 -1.12469399e+00  6.01680517e-01
  -3.80879156e-02  1.17592402e-02  1.89057961e-01  1.37427598e-02
   2.26535156e-01  7.34501362e-01  2.94272453e-01  2.54106104e-01
   9.15333331e-02  2.73450941e-01 -3.74340899e-02 -2.83167750e-01
  -1.87508807e-01  1.46595597e-01 -6.54759943e-01  2.72068471e-01
   2.80255713e-02 -3.61838847e-01  3.92626405e-01  2.99413502e-01
  -8.35480452e-01  2.51929432e-01  2.21012935e-01 -3.04555148e-01
  -1.43581768e-03  9.04665589e-02 -2.09938720e-01 -9.62723553e-01
  -4.97467637e-01 -2.90540874e-01  3.14987041e-02 -5.87543994e-02
  -9.76360261e-01  1.44894677e-03 -3.64975274e-01 -3.00938040e-01
   6.87937558e-01  7.80559242e-01  2.77608577e-02 -2.50094384e-01
   1.37626737e-01 -2.19510928e-01  5.40255070e-01  2.95786679e-01]
 [-1.58984885e-02 -7.26271719e-02 -6.37997538e-02 -2.97919571e-01
   4.73138988e-01 -1.35204867e-01 -3.07182372e-01 -3.47573638e-01
   1.40561461e-01  2.99984273e-02  4.70661908e-01 -2.76883304e-01
   6.48418665e-01  4.20734972e-01  1.34788349e-01 -1.03948377e-02
  -4.75382172e-02 -4.41436559e-01  1.14638925e-01 -7.36810565e-01
  -4.94203269e-01 -6.41463622e-02 -5.23821771e-01  2.87425101e-01
  -2.28453726e-01  2.00257972e-02  2.09423691e-01  8.64975806e-03
  -1.92274153e-02  2.49002893e-02  1.15458131e-01  3.68992299e-01
   1.37303144e-01 -4.55919325e-01  3.26001376e-01  2.10486427e-01
   4.06191528e-01  9.60238457e-01  2.36586139e-01  1.69796094e-01
  -2.84423858e-01  1.83673665e-01 -6.81162953e-01 -4.23465133e-01
   7.26795018e-01 -5.71469665e-01  9.25130546e-02  4.73809093e-02
   3.05647045e-01 -3.82574350e-02 -5.74682951e-01  5.49635291e-01
  -2.14938939e-01 -2.81638920e-01 -1.34218290e-01 -3.22093815e-02
   6.32394627e-02  2.05813512e-01 -6.58967733e-01 -6.60563856e-02
   3.03692907e-01 -6.04367182e-02  5.20681255e-02 -3.06633431e-02
   3.88065130e-02  2.85619974e-01  6.39300764e-01  1.93521410e-01
  -3.99753839e-01 -1.61960647e-01  3.66933525e-01  2.65905038e-02
   1.12787560e-01  2.34925747e-02 -6.90349638e-02 -9.27842915e-01
  -6.37151748e-02  4.05586436e-02  8.04687142e-02  4.76927817e-01
   4.67827410e-01  6.42123371e-02  3.04406911e-01  2.95232888e-02
  -7.06908330e-02  6.17145784e-02  5.90070605e-01  2.17987299e-02
  -5.63343801e-03 -1.36638477e-01 -1.71660796e-01  7.61928618e-01
   8.87283683e-02  8.52267519e-02  2.47337148e-01  3.70291024e-01
   7.96751007e-02 -2.19923049e-01 -1.16242066e-01 -1.59824878e-01
   6.37142882e-02 -1.41448557e-01  5.24076819e-01 -1.33765757e-01
   1.07922800e-01  3.01894277e-01 -1.30938664e-01  1.69540327e-02
   6.18007071e-02 -2.71375120e-01 -6.28295481e-01  3.81789088e-01
   6.65694475e-01  2.10293576e-01 -3.30563843e-01  3.02519232e-01
   6.97905540e-01 -1.91873327e-01 -6.60612583e-01 -5.31322658e-02
   5.79530776e-01  5.37032425e-01  1.27883390e-01  1.15628608e-01
  -3.16824168e-01  2.99549222e-01  4.13209409e-01  2.12703750e-01]
 [ 1.76473528e-01 -1.82824731e-01  6.81944117e-02 -4.01558518e-01
   8.92062426e-01 -3.76848370e-01 -3.41727227e-01  7.54786283e-02
   1.92523777e-01  3.90437357e-02  3.76804173e-01 -2.28885829e-01
   4.19050813e-01  3.27836037e-01  7.48530328e-02 -2.35853061e-01
  -2.75206417e-01 -1.26257300e-01 -3.22800763e-02 -6.62593842e-01
  -3.39988172e-01  7.90624246e-02  8.75624046e-02  1.10855281e-01
  -4.65469584e-02  1.67522550e-01  2.42377713e-01 -3.98569591e-02
  -8.79770517e-03  1.92002475e-01  9.54355374e-02 -7.46126771e-02
   4.67946291e-01 -1.95667055e-02 -7.93126523e-02  1.72150820e-01
   1.62183762e-01  6.11696959e-01  3.30292940e-01 -1.17687017e-01
  -8.90413076e-02  2.31254369e-01 -6.82481229e-01 -1.99245274e-01
   5.44896066e-01 -5.17802954e-01 -2.30382875e-01  5.86741827e-02
  -2.72973888e-02  7.07582757e-02 -1.56907097e-01 -9.85387787e-02
   3.12504560e-01 -3.15543056e-01 -4.03868198e-01  3.65386575e-01
   1.20372400e-02  2.63234288e-01 -3.93185198e-01 -1.39109403e-01
   7.28609800e-01 -1.05773173e-01 -4.24106233e-02 -3.54115814e-02
  -5.20272553e-01  2.03965932e-01  2.06345201e-01 -4.66204360e-02
  -3.16317856e-01 -1.21957004e-01 -1.11307748e-01 -2.27648914e-01
   2.03727141e-01 -6.04569018e-02  3.02072763e-02  2.26269037e-01
   6.36030585e-02  5.50056323e-02 -2.59669870e-01  4.00200248e-01
   3.27295989e-01 -2.19526291e-02 -1.47157535e-01  1.40379108e-02
  -8.32586512e-02  8.70089531e-02  4.04940218e-01 -4.28913534e-03
  -4.75793511e-01 -4.27684337e-01 -1.07614614e-01  7.87202895e-01
   3.31607908e-01  4.19071727e-02  3.51886481e-01  6.80576861e-02
  -7.98128247e-02 -9.14033428e-02  2.91309655e-01 -3.30738842e-01
   7.54214004e-02 -4.27397609e-01 -3.82200271e-01 -3.14552575e-01
   4.31416273e-01 -7.84898028e-02  1.72906294e-01 -9.44223255e-02
   1.21051848e-01 -5.32972068e-02 -7.32444525e-01 -6.19303659e-02
   1.69599373e-02 -2.35827029e-01 -2.02566177e-01  6.42371118e-01
   4.56969529e-01 -8.93921182e-02  3.65359336e-03  5.80638908e-02
   5.89596152e-01  2.92552084e-01 -1.61538441e-02  2.31926799e-01
   1.11354128e-01  1.05529964e-01  3.12450081e-01 -1.68009177e-01]
 [ 2.00260267e-01 -3.67127925e-01  6.90480053e-01  5.25362194e-01
   1.09552503e+00 -1.36139065e-01 -4.39959168e-01  5.47317564e-01
   5.78781881e-04  3.44369024e-01 -2.92254407e-02  1.15511842e-01
   4.45404291e-01 -1.74389020e-01  4.00040299e-02  4.52117361e-02
   2.02258289e-01  8.46542940e-02  6.34540841e-02  1.93723440e-01
   1.20964147e-01  9.95320231e-02 -2.69579411e-01  1.04608223e-01
   1.12495899e-01  6.63119733e-01  5.02333462e-01 -6.44954145e-02
  -6.39963746e-02 -3.14914912e-01  5.65781713e-01 -5.23442328e-01
   1.35777801e-01  8.14677998e-02  3.49995404e-01  1.48594305e-02
   2.72391647e-01 -2.07569331e-01 -5.93293980e-02  1.09801702e-01
   3.44946951e-01  2.87778199e-01 -5.39764047e-01 -3.17996591e-02
   6.05537236e-01  2.96971887e-01 -3.24626088e-01 -2.99312104e-03
  -1.25291124e-01 -5.93969971e-03  2.73038238e-01 -3.35672557e-01
   7.54448533e-01 -1.83697511e-02 -8.48096073e-01  7.45569706e-01
  -3.10056955e-02  3.73471171e-01  2.41819456e-01 -1.07000634e-01
   6.69207752e-01  3.17243695e-01  7.32539296e-02 -2.85786372e-02
  -9.12477911e-01  4.44273919e-01 -6.35559559e-02  3.13091092e-02
  -2.86527604e-01  2.44087681e-01 -1.99585259e-01 -6.95280135e-02
   1.00185454e-01  5.26146814e-02  1.14868358e-02  8.30739975e-01
   1.54285863e-01 -5.53764775e-02  7.51048923e-02  1.55442864e-01
   4.23011631e-01 -6.46610707e-02  1.05677303e-02 -1.67474442e-03
  -1.24275312e-02 -4.47810031e-02 -2.89039820e-01  4.09394130e-02
  -3.21695693e-02 -1.85269013e-01  1.89992040e-02  2.80973822e-01
  -6.89614341e-02  1.25678405e-01  2.61452258e-01 -3.01777124e-01
   3.37102234e-01  4.76784706e-01  3.85988504e-01 -2.80850142e-01
  -4.68522646e-02  2.23434949e-03 -2.36279100e-01 -1.59894124e-01
   2.74489135e-01 -1.50565788e-01  6.52441800e-01  7.92646036e-02
   9.31640938e-02  4.28256899e-01 -3.20559680e-01  3.23013783e-01
   2.56714243e-02 -4.05129880e-01 -2.03121200e-01  8.36574793e-01
   3.75492007e-01 -2.78883278e-01  4.01846468e-01  2.89263964e-01
   3.23938757e-01 -1.06794305e-01  1.09863132e-01  6.00517869e-01
  -1.42582357e-01 -5.64338923e-01 -6.26559973e-01  2.99216747e-01]
 [ 1.70641139e-01  2.46890202e-01 -2.02434361e-01 -2.21328199e-01
   9.94683057e-02  1.90266043e-01  1.68974176e-01 -5.03923774e-01
  -1.33503541e-01 -5.54904461e-01  1.74274355e-01 -1.62726492e-01
   4.03163165e-01 -8.34263861e-02  6.78213388e-02 -1.49852008e-01
  -1.01121441e-01  9.34619233e-02  5.94176829e-01 -3.74417633e-01
  -3.18375409e-01  9.17006284e-03 -9.74758714e-02  2.48689488e-01
  -1.71088159e-01 -2.33852416e-01  2.50449479e-01 -6.73696101e-02
   5.19068465e-02  3.49380553e-01 -3.19925874e-01  3.59733552e-01
  -2.80953288e-01 -3.55057061e-01  1.22756295e-01 -4.24886160e-02
  -5.09438455e-01  1.08610429e-01  2.34842762e-01 -1.51789427e-01
  -2.12217793e-01 -8.79357755e-02 -4.11484778e-01 -2.70932615e-01
   2.25059271e-01  3.01390946e-01  2.71255076e-01 -7.95293897e-02
   3.29294652e-01 -3.39446329e-02 -2.76934188e-02  1.71881497e-01
  -2.51995742e-01 -3.92123282e-01 -4.30134863e-01  2.50335157e-01
  -9.30701941e-03  2.30332762e-01 -1.60200521e-01  3.53924185e-02
   3.31082165e-01 -2.32499287e-01  5.72031625e-02  7.78850988e-02
   1.68300062e-01  5.13261974e-01 -1.01780298e-03 -1.54335469e-01
  -2.89074004e-01 -3.97915900e-01  1.29226923e-01  9.14467126e-02
   1.30384728e-01 -6.23221174e-02 -7.17193186e-02 -2.49483272e-01
   2.16511399e-01  1.26999617e-02 -1.62154302e-01  7.11845532e-02
   4.51061964e-01  1.28877477e-03  3.95826340e-01 -2.04969466e-01
   4.11601216e-02  7.05091953e-02 -1.78488821e-01 -2.66413130e-02
   1.07370310e-01 -1.19293667e-01 -1.81455880e-01 -1.95032209e-01
  -1.74893156e-01  9.83870551e-02  3.00942250e-02  2.52143711e-01
   1.62013531e-01  1.79159462e-01 -5.33733182e-02 -2.89442003e-01
   2.48730510e-01  3.25497448e-01  2.90677994e-01 -4.30097550e-01
  -6.58859536e-02 -5.60216188e-01  2.84021255e-03 -1.17237814e-01
  -2.21361458e-01 -2.02644140e-01 -1.09573625e-01  3.58443320e-01
   6.86479330e-01  5.96172154e-01  1.39629483e-01  3.51727247e-01
   5.38341522e-01  1.97968781e-01  2.48019114e-01  1.06030151e-01
   2.10497558e-01  1.86849087e-01  2.77191550e-01  9.24572125e-02
   9.54931322e-03  3.96074355e-02  5.25872894e-02 -2.81339318e-01]
 [-3.22420388e-01  4.87589568e-01 -6.54564083e-01  1.97456062e-01
  -8.70884582e-02 -1.39913946e-01  9.87086654e-01 -3.50326389e-01
   7.53026158e-02 -6.10573232e-01  4.44603354e-01 -2.42372185e-01
   4.09665436e-01  6.39812276e-02  5.67428350e-01 -3.24349105e-01
   2.94413924e-01 -1.77578218e-02  7.76597321e-01 -5.82094729e-01
  -3.80253255e-01  1.18226260e-01 -1.87056497e-01 -8.75019878e-02
  -3.77315372e-01 -3.87010574e-02  3.36854398e-01  8.01766887e-02
  -6.30913973e-02 -1.86959311e-01 -2.29083762e-01 -3.07065547e-01
  -8.28187615e-02 -1.74589351e-01  4.01486963e-01 -1.01944156e-01
  -3.72442901e-01  4.38494921e-01  6.51486576e-01  1.32104874e-01
  -4.63644564e-02 -8.78741071e-02 -6.15072846e-01 -2.21053943e-01
  -3.25027823e-01 -4.02381532e-02  5.12170196e-01  1.46097451e-01
   2.28423640e-01  5.54784164e-02  6.26787618e-02 -1.23015650e-01
  -4.09538716e-01  5.24872005e-01 -2.97152042e-01 -1.67364955e-01
  -5.72693087e-02  5.69985390e-01  5.98716199e-01 -3.70585248e-02
  -4.02100235e-01  5.26473939e-01 -2.84145139e-02 -7.37539679e-02
   6.17340446e-01  5.05024493e-01 -2.23915234e-01 -8.47451314e-02
  -3.16382170e-01  7.33802319e-02  2.66407919e-03 -7.95852989e-02
   7.94692636e-01 -3.08818519e-02 -5.27943522e-02  7.81581178e-02
   3.02397064e-03 -2.07489319e-02  3.11805934e-01  9.01377276e-02
   6.96412504e-01 -5.19964807e-02 -1.26908034e-01  6.47201911e-02
  -6.14236435e-03  1.03289336e-02 -5.34703612e-01  7.47294948e-02
  -3.74015361e-01  1.34154961e-01 -8.87746885e-02 -4.56448585e-01
  -4.03883249e-01  7.54315630e-02 -2.51389384e-01  8.52770329e-01
   3.49225491e-01 -2.42486335e-02  2.87259102e-01 -2.38424331e-01
   4.15210843e-01 -7.38601834e-02  1.65393904e-01  5.30460298e-01
   2.76233964e-02 -2.49658629e-01  1.60698965e-01 -4.60433155e-01
  -4.47583646e-01 -2.41292026e-02  3.06107104e-01  1.96326599e-01
   5.92672110e-01  8.23424518e-01  2.44411826e-01 -1.24607980e-01
   5.07025898e-01  1.07497193e-01  2.85231113e-01  9.47923720e-01
   4.63771135e-01  2.36412212e-02  2.68138856e-01  5.69360442e-02
   5.67741469e-02 -3.20367664e-01 -4.10329312e-01 -2.97651868e-02]
 [-1.98330626e-01  1.01699762e-01  1.74325809e-01  5.75253248e-01
  -3.78782392e-01  1.78274121e-02  2.38952294e-01  3.41242284e-01
  -1.72370300e-01 -1.54618040e-01 -9.04480889e-02  2.08900169e-01
   3.90827566e-01  8.26911390e-01  4.42094177e-01 -2.34692618e-01
   2.50225186e-01 -1.48846833e-02  7.08309934e-02 -2.17088640e-01
  -2.15370044e-01 -5.61936945e-02  6.06114745e-01  5.65818965e-01
  -2.56179012e-02 -1.72362909e-01  5.13345957e-01 -7.11470544e-02
  -7.27236271e-02 -1.86272025e-01 -6.69322848e-01  3.48511674e-02
  -1.28904477e-01 -3.28687072e-01  3.98998827e-01  6.41756356e-02
   6.11364663e-01 -1.84735820e-01  4.12158906e-01 -3.38294417e-01
  -2.91585475e-01  1.83634102e-01  4.58513677e-01 -2.96522856e-01
  -5.44958472e-01  7.02270716e-02 -5.18868387e-01  9.10896286e-02
   3.19511890e-01 -7.53547624e-02 -3.43311638e-01 -1.86184794e-01
  -1.68291673e-01 -1.34696722e-01 -4.92054611e-01 -2.99374610e-01
  -7.82595277e-02  5.64396977e-01  3.14292252e-01  2.26112679e-02
  -1.95587382e-01 -6.67340010e-02  2.76556741e-02  7.83230588e-02
   2.31469139e-01  6.30473018e-01  3.92778546e-01 -5.10144867e-02
  -4.70565826e-01 -8.62046182e-02 -1.40297249e-01  1.41429886e-01
   8.47629249e-01 -5.41027226e-02 -3.82279716e-02  1.03025176e-01
   6.27902299e-02  4.70350906e-02 -2.75675088e-01  2.13658929e-01
   2.70393789e-01 -3.37815396e-02  6.95919514e-01 -1.53553560e-01
  -5.35135809e-03 -7.84790143e-02  2.37646550e-01 -1.72208920e-02
  -1.83108792e-01  4.42374378e-01 -1.41895756e-01 -4.78703588e-01
   5.54934978e-01 -1.54722529e-02  3.29751968e-01 -4.90164578e-01
   2.88252652e-01  2.10489079e-01  3.24619591e-01 -2.67189860e-01
  -8.07988737e-03 -9.44816694e-02 -1.46865472e-01 -4.89389926e-01
   2.72864193e-01 -3.63141000e-01  1.08748011e-01 -3.38898450e-02
   2.97992587e-01 -1.22584574e-01  1.84624895e-01  2.86334991e-01
   6.76097095e-01 -4.24954414e-01  4.47691262e-01 -1.24108613e-01
   3.95778209e-01  1.24378718e-01  5.81021905e-01  4.09405738e-01
  -2.05390215e-01  1.85587466e-01 -3.51498574e-01  3.91946614e-01
  -3.02341968e-01 -9.10403669e-01 -1.77801639e-01  5.04434586e-01]
 [-3.03456128e-01  3.49459410e-01 -1.94626153e-01 -1.82077810e-01
  -1.08246669e-01 -5.46969883e-02  3.47767621e-01 -4.04344052e-01
   1.95447773e-01 -1.32760108e-01  3.50969642e-01 -2.81011283e-01
   2.52792478e-01 -2.05481142e-01 -1.10433459e-01 -3.91899228e-01
  -1.01597384e-01 -3.00311178e-01 -1.10816091e-01 -5.58876276e-01
  -5.62219620e-01 -9.38456431e-02  4.42680985e-01  2.96080261e-01
  -2.82758385e-01 -6.25275552e-01  4.40428019e-01  5.29717363e-04
  -2.69464701e-02  3.46240997e-01 -3.43246639e-01  1.67852849e-01
  -6.96543455e-02 -3.50488305e-01  3.91334631e-02  3.50507379e-01
   3.87906581e-01  8.64441991e-02  2.68324286e-01 -3.66715752e-02
  -5.96536547e-02 -7.24001408e-01  4.05980349e-01 -5.50981522e-01
  -1.41996816e-01  8.62214714e-02 -5.73541634e-02 -6.16285242e-02
   3.65684956e-01  6.71013370e-02 -2.42814824e-01  5.05382299e-01
  -3.82026106e-01  1.27331048e-01 -5.03981300e-02 -4.92269427e-01
  -3.06439549e-02  1.79807931e-01 -1.50970370e-01  7.04621449e-02
  -4.26078618e-01  9.75580215e-02 -1.15513327e-02 -7.40158334e-02
   8.04484859e-02  1.68315917e-01 -9.10171047e-02 -1.63019001e-01
  -5.55794239e-01 -5.20235479e-01 -5.62928021e-01 -1.69981837e-01
   1.64613679e-01 -6.69129193e-02  5.56904897e-02  4.18383807e-01
  -1.36463270e-01  7.61049315e-02  2.56142188e-02  3.86118978e-01
   7.94991791e-01  9.42185055e-04  4.33253020e-01 -1.39409617e-01
   4.63405512e-02  5.17995581e-02  9.49638337e-02  5.21890298e-02
  -3.72452170e-01  2.40377441e-01 -3.33261997e-01  5.54732140e-03
   2.74238527e-01 -5.81234656e-02 -1.35546416e-01 -1.60818119e-02
   1.88040942e-01 -2.99547404e-01 -1.47861168e-01 -2.41322637e-01
  -8.37828889e-02 -2.48194322e-01  1.18457101e-01 -1.87648565e-01
   5.44280745e-02 -1.62014768e-01 -4.00052041e-01 -4.29224938e-01
  -1.68557167e-02 -3.72322321e-01  2.39377329e-03  1.56022102e-01
  -3.15061152e-01  4.97589484e-02  5.65017387e-02 -1.44271344e-01
   3.55769515e-01  2.19443545e-01  1.19099595e-01  4.99144256e-01
  -3.02224774e-02 -5.81407905e-01 -2.72608966e-01  1.28175626e-02
   1.21077158e-01 -7.81806052e-01 -1.55051589e-01  1.29577875e-01]
 [-1.64130807e-01  4.44706619e-01  4.74252760e-01 -4.65959962e-03
  -1.01034656e-01 -2.86358505e-01  2.98108250e-01  6.85190558e-02
   1.63046926e-01 -8.21556151e-02  9.02181983e-01 -4.72813040e-01
   1.61256641e-01 -1.06684618e-01  1.74658641e-01 -3.82163018e-01
   3.91703025e-02 -5.74762106e-01  2.51578659e-01 -9.74399626e-01
  -7.41422832e-01 -1.49254143e-01 -4.30723466e-02  3.83019835e-01
  -2.04743609e-01 -7.57438466e-02  3.71857762e-01 -5.45824915e-02
   1.58818513e-02  2.86901981e-01 -1.36261895e-01  3.13759856e-02
   3.25902700e-01 -4.23474580e-01  2.66025066e-01  4.78812993e-01
  -3.17677349e-01  5.57808340e-01  2.19289330e-03 -2.26216525e-01
  -2.59803742e-01 -2.15439066e-01  4.05542254e-01 -1.23056583e-01
   2.52550449e-02 -4.55978930e-01  2.52114702e-03  1.23002805e-01
   2.44502380e-01 -2.69170385e-03 -7.00662971e-01  6.16689920e-02
  -2.65388489e-01 -1.38070192e-02  2.99610972e-01 -1.37041301e-01
  -5.93372136e-02 -3.51874754e-02 -9.30412412e-01 -2.43964233e-02
  -1.59230661e-02 -2.14027867e-01  3.23192626e-02 -1.58287492e-02
   4.17457640e-01  1.08436018e-01 -9.70751792e-02  1.38612255e-01
  -4.43124920e-01 -6.50032699e-01  6.69600666e-02 -6.40719160e-02
   1.98681168e-02 -2.57373042e-02  2.19879597e-02 -3.65629382e-02
  -1.43662944e-01  1.05617940e-03 -8.84292498e-02  1.94862515e-01
   1.48051783e-01 -2.23957941e-01  1.17309324e-01 -4.28311229e-01
  -4.30901982e-02  4.68005985e-03 -4.99741919e-02  3.49652320e-02
  -1.48507893e-01  2.58360207e-01 -4.31075573e-01 -4.54232953e-02
  -1.68096405e-02 -3.49219590e-02  3.00567336e-02 -7.85505772e-02
  -2.37609670e-01 -3.79772276e-01 -8.81891623e-02 -3.91555801e-02
  -1.14179321e-01  2.02504352e-01 -5.28948493e-02 -6.17380261e-01
  -1.03656650e-01  6.74393326e-02 -1.97750673e-01 -5.62419295e-01
   3.32974285e-01 -2.51259118e-01 -6.68460071e-01 -2.60333680e-02
  -4.75930870e-01 -5.67119777e-01  1.60757676e-01  4.54097062e-01
   3.76280665e-01  3.88906240e-01 -5.94295204e-01  2.78585792e-01
   1.54704496e-01  1.79368839e-01 -4.68897074e-01  6.37708744e-03
   4.74976808e-01  1.05736300e-01  1.33043528e-01  7.14975446e-02]
 [-4.21557575e-01  3.20448518e-01  7.34143376e-01 -8.66302177e-02
   3.62037688e-01 -9.69198868e-02  3.71126324e-01 -5.73501706e-01
   3.50687146e-01 -1.34707287e-01  1.15382500e-01  8.74575824e-02
  -5.46008945e-01 -6.67405665e-01  6.62630439e-01 -8.96766067e-01
  -8.90986528e-03  3.74833047e-01  3.01815331e-01 -8.21732819e-01
  -4.69538152e-01 -1.09402440e-01 -1.54113974e-02 -1.50708303e-01
  -2.15613201e-01 -4.73402217e-02  2.82923412e-03  1.26330793e-01
  -2.25837491e-02 -3.49640124e-03  5.07982850e-01  3.05543113e-02
   7.18687117e-01 -1.60162151e-01  2.33390510e-01  3.81925590e-02
  -8.04945171e-01  7.03895628e-01  7.08343869e-04 -4.89848927e-02
  -3.68610829e-01 -1.18001945e-01 -1.93856284e-01  3.97734791e-01
   6.49789572e-01 -3.39147329e-01  4.29951161e-01  6.70647202e-03
   2.67157376e-01 -4.41591162e-03 -2.83352137e-01  7.39197493e-01
  -2.64278859e-01 -1.20114468e-01 -1.47171184e-01 -5.04670501e-01
  -5.69128692e-02 -3.21210027e-01 -3.74386072e-01  5.14355637e-02
  -8.13700557e-02 -2.57519279e-02  3.69505212e-02 -4.19287942e-02
   6.67696893e-01  6.24645233e-01 -7.07012475e-01  7.40455315e-02
  -4.43093598e-01 -4.36218649e-01  1.77481666e-01  2.66458124e-01
   4.95570898e-01  2.48697698e-02 -2.92228386e-02 -6.00441732e-02
   1.41985700e-01  4.14769426e-02  5.51931560e-01 -2.79712588e-01
   6.57058895e-01  1.10460550e-01 -1.06891346e+00  4.36917186e-01
   1.26298694e-02 -1.14790760e-01  3.20704609e-01 -5.08790463e-02
   4.58366349e-02  7.42552221e-01  1.08700462e-01  3.59983295e-01
   1.58241495e-01  1.19035222e-01  6.70836791e-02  4.31572739e-03
   6.58272281e-02  2.69629136e-02 -3.22734624e-01  2.36332104e-01
  -3.73808026e-01 -3.07500154e-01  1.47080183e-01 -2.78938580e-02
  -5.68673491e-01  7.59362131e-02  1.60290420e-01 -4.87941653e-01
   5.22915065e-01 -3.40147436e-01 -6.22133791e-01 -3.41037840e-01
  -3.66015136e-01 -1.01965475e+00 -9.80249345e-02 -2.72108819e-02
   9.59598869e-02 -1.04457974e-01 -7.30447829e-01 -3.45088035e-01
   1.85114011e-01  7.20626235e-01 -2.10321531e-01 -3.04615140e-01
  -5.21568442e-03 -8.32207024e-01  3.78647000e-01 -1.04185544e-01]
 [-3.04814726e-01 -4.61893141e-01  3.94679725e-01  7.62887597e-02
   9.29531604e-02 -7.34433485e-03 -4.20525432e-01 -3.51675838e-01
   1.91342473e-01 -3.10117573e-01 -2.45348394e-01  9.96776149e-02
  -1.64421484e-01 -1.25368446e-01  3.26370820e-02 -9.57472920e-01
   1.38460528e-02 -3.09220552e-01  5.32596231e-01 -5.35271287e-01
  -5.68543136e-01 -2.06902906e-01 -1.68413624e-01  2.72111800e-02
   1.91821218e-01  2.57919967e-01 -5.42311549e-01 -1.09167255e-01
  -1.80829819e-02  2.98914850e-01  4.84809339e-01  1.50360152e-01
   1.63464099e-01 -9.38794687e-02 -7.26360381e-02 -5.68188488e-01
  -5.38189173e-01  8.55724663e-02 -5.17519712e-02  2.45151237e-01
  -2.18573332e-01 -9.13281867e-04  1.08384714e-01  1.18893743e-01
   2.67311543e-01  3.26389492e-01  1.50917992e-02 -1.90737590e-01
   5.87311424e-02 -5.35797179e-02 -2.37955842e-02  3.19531053e-01
   4.31749690e-03 -2.11696565e-01 -1.16243780e-01  2.58618146e-01
   1.71768460e-02 -7.16674387e-01 -7.35468686e-01  7.85590336e-02
   1.92635581e-01  9.01611745e-02 -3.86210121e-02  7.45196939e-02
   1.78177729e-01  4.91965771e-01 -7.65080988e-01  1.06890902e-01
  -3.56887132e-01 -4.76294309e-01 -1.50939062e-01 -5.76858260e-02
   3.15384179e-01  7.33663067e-02 -2.54163668e-02  4.09352124e-01
  -1.66285545e-01 -1.75609440e-03  3.94221783e-01 -4.48262483e-01
   6.38473749e-01  1.80865943e-01 -7.16621518e-01  3.68943632e-01
   7.20815286e-02 -2.33094525e-02  2.44741336e-01 -5.27942739e-02
  -4.47957724e-01  1.40017658e-01 -1.29254654e-01  1.40410766e-01
   4.95105565e-01  1.75239459e-01 -4.39346641e-01 -6.66796714e-02
  -2.24273484e-02  4.00772363e-01  1.88576505e-01  2.51757950e-01
  -6.13292158e-01 -3.05399508e-03 -2.26233214e-01 -6.02614805e-02
  -1.63980111e-01  3.76282752e-01  1.45371169e-01 -1.94755986e-01
   4.61075217e-01  8.36919472e-02 -6.50891662e-01 -4.80138749e-01
  -2.69677877e-01 -3.79361689e-01  4.35735464e-01  2.41978705e-01
   3.15848053e-01  1.07866049e-01 -1.36479378e-01 -4.72952873e-01
   1.53014809e-01  7.88079321e-01 -3.63107175e-01  3.31054032e-01
   6.60797730e-02  2.53817320e-01 -6.88708052e-02  4.66562748e-01]
 [-5.87018907e-01  7.44140372e-02  2.42768466e-01 -1.48530766e-01
   6.12852991e-01 -6.26949251e-01 -5.07429719e-01 -1.56122401e-01
  -3.33848715e-01 -4.33271945e-01  2.37961829e-01  9.40454379e-02
   1.08386195e+00 -2.91772597e-02 -2.11994007e-01 -5.63840330e-01
   1.64786130e-01 -6.60017848e-01  6.50964081e-01 -2.18113348e-01
  -6.12550855e-01 -1.89109385e-01 -5.07397532e-01  1.32234797e-01
   1.23015903e-01  5.07415771e-01 -6.01668596e-01 -2.66492218e-01
  -1.47171644e-02  1.90134376e-01  6.17357433e-01  6.39241487e-02
  -1.22446427e-02  2.84565892e-02  6.39882147e-01 -2.49018446e-01
  -3.39153528e-01 -2.12381870e-01  3.85103464e-01  3.13473642e-01
  -2.36152276e-01  9.78135616e-02 -2.00946614e-01  4.09252226e-01
   6.38784766e-01  3.40291768e-01 -1.38409957e-01 -7.19003916e-01
   1.73598915e-01  9.27489996e-03 -3.53077769e-01  2.07766652e-01
   2.55403984e-02  3.98835167e-02 -3.37296993e-01  5.86009145e-01
   7.61206523e-02  2.94362247e-01  2.22583443e-01 -1.39416039e-01
   4.63859588e-01  1.65611550e-01 -2.72823754e-03 -3.20249908e-02
  -5.82130075e-01  2.15655908e-01 -7.06729949e-01  2.35519614e-02
  -8.17566514e-02 -4.73821402e-01 -8.30385387e-01  2.65356928e-01
   3.90247144e-02 -2.29578316e-02 -5.61504737e-02  4.91472065e-01
   4.69199568e-02 -2.89341584e-02  5.13996005e-01 -5.15560567e-01
   4.11770850e-01 -2.05360174e-01 -8.36393654e-01  9.81934816e-02
   4.12288830e-02  1.00498535e-01  9.06773806e-02 -4.38176095e-02
   4.13877040e-01  1.16197176e-01  2.81399488e-01  1.13878421e-01
  -7.08696768e-02  1.00288667e-01 -5.45082688e-01 -2.50152141e-01
   8.66091773e-02  3.22952390e-01 -7.46294707e-02 -2.30399370e-02
   2.06394643e-01  2.59953380e-01 -5.24246395e-01 -2.43264586e-01
  -3.87906134e-01 -6.33134767e-02  4.14000265e-02  2.10548788e-01
   4.18329611e-02 -2.49603480e-01 -1.25042880e-02  2.21048761e-02
  -1.39456153e-01 -1.90999195e-01  1.08410217e-01  1.56309664e-01
  -5.95499314e-02  1.86868966e-01 -2.69194037e-01 -4.86998826e-01
   4.61452663e-01  1.30998865e-01 -3.81148934e-01 -7.49554709e-02
   2.91813575e-02  4.03893411e-01 -1.13339283e-01  6.18886687e-02]
 [-6.22279108e-01  1.38003290e-01 -3.64427753e-02  3.12355459e-01
  -2.41178587e-01 -2.50401109e-01  5.20156920e-01 -3.46196860e-01
   2.22089812e-01 -1.38456121e-01 -5.07437997e-03 -8.99503648e-01
  -2.56040275e-01  4.47710305e-02 -3.97542804e-01 -7.85514414e-01
  -4.34239097e-02 -7.41981924e-01 -5.35371713e-03 -6.10755682e-01
  -1.23238528e+00 -1.63437456e-01 -4.70193952e-01 -4.14778292e-01
   3.01638961e-01  9.28921029e-02 -5.70862949e-01 -2.35838428e-01
   2.82074660e-02  1.22738764e-01  9.48233679e-02  1.26357540e-01
   3.07154059e-01 -6.88807726e-01  4.20074224e-01 -2.76290566e-01
  -1.06361829e-01 -7.97957242e-01  2.33123392e-01  3.31560135e-01
  -1.59139469e-01 -8.68593678e-02 -2.49208286e-01  1.27002925e-01
   5.25698625e-02  4.13034379e-01 -5.61617129e-02 -5.65450430e-01
   3.31900954e-01 -2.10848860e-02 -1.38631672e-01  5.62509537e-01
  -1.90422550e-01  2.60708541e-01 -3.28525513e-01  9.68218222e-02
   5.20685129e-02  1.52252913e-01 -2.06099033e-01 -2.02928767e-01
   1.18137598e-01  3.85052748e-02 -2.39800531e-02 -5.25452830e-02
  -2.30182275e-01 -1.80881232e-01 -2.31581950e-03 -7.66776726e-02
   2.25230932e-01 -3.62242788e-01 -2.94301450e-01  4.44263577e-01
   8.02429467e-02  6.88963458e-02  6.59842268e-02  1.90703526e-01
  -3.87366712e-02 -4.89037745e-02  3.70275319e-01 -5.09650648e-01
  -2.50518620e-01 -1.74237907e-01  1.15628608e-01 -3.60901386e-01
   4.09065932e-02  7.37065598e-02 -1.71627730e-01  1.72823071e-02
  -2.21974969e-01 -1.45569414e-01 -2.99110580e-02  6.80652559e-02
  -3.63047719e-01  2.51799803e-02 -2.59635597e-01  9.74421501e-02
  -6.11773968e-01  1.74941123e-01  3.82847004e-02  2.93664690e-02
   2.74122685e-01 -2.35988811e-01  2.17265934e-01 -3.71451259e-01
  -5.54506667e-03 -5.00055492e-01 -4.93179262e-01 -9.59249675e-01
  -4.33349520e-01 -2.43781522e-01  6.14179149e-02  5.67247629e-01
   1.05386503e-01  1.95154294e-01  2.55131610e-02 -1.51443183e-01
  -1.94650054e-01  2.23526090e-01 -3.41219842e-01 -2.34707117e-01
   2.04548277e-02 -8.65180016e-01  7.03095421e-02 -9.07790810e-02
  -1.45837992e-01 -2.25589901e-01 -5.51074028e-01 -6.41543567e-01]
 [-2.49157161e-01  1.07216448e-01 -3.31643552e-01 -1.11663133e-01
  -2.87853926e-01 -3.97975355e-01  4.21771795e-01 -2.82737643e-01
   4.58223403e-01 -3.49508494e-01 -2.61360914e-01 -1.17224288e+00
  -1.80908129e-01  6.95937574e-02 -4.82775003e-01 -8.82562041e-01
  -3.41789871e-01  4.80631322e-01  2.03233257e-01 -4.51770633e-01
  -2.38637149e-01 -2.36377463e-01 -2.87349045e-01 -1.64868236e-01
   1.71600506e-01  2.77711600e-01 -1.14241801e-01 -4.87103581e-01
  -4.82799672e-02  9.42239314e-02  4.10514861e-01  2.28224128e-01
   4.67223465e-01 -4.23521847e-01  1.56321377e-01 -1.67355463e-01
  -2.33698025e-01 -6.73664093e-01  1.66050896e-01  5.50637782e-01
  -5.63368022e-01 -1.41223058e-01 -2.69284070e-01 -1.05722770e-01
  -6.30019158e-02  1.26208588e-02 -6.92089126e-02 -1.03367567e-02
   2.65285075e-01  2.32417248e-02 -1.43546417e-01  2.79840201e-01
  -1.70418113e-01  1.94396853e-01 -1.60108015e-01  4.29195344e-01
   3.08862664e-02 -5.47912359e-01 -7.64441013e-01  1.82771102e-01
   2.06898391e-01  3.25546652e-01  8.57719406e-03 -9.31642298e-03
   1.99646235e-01 -3.13821360e-02 -7.45318979e-02 -2.15349067e-02
   9.72108319e-02 -2.46214885e-02  2.59162813e-01  1.26073360e-01
   1.23369671e-01 -6.45282045e-02  3.10800150e-02 -3.10977548e-01
  -4.89912778e-01 -6.06059618e-02  3.57383132e-01 -4.78808641e-01
  -2.29635447e-01 -5.97040236e-01  6.67444542e-02 -2.72024870e-01
  -1.55312838e-02 -2.85381731e-02 -6.31761432e-01 -7.48445988e-02
  -9.07949656e-02  2.30549365e-01 -4.07775104e-01 -2.05500141e-01
  -2.63903916e-01  6.34165555e-02 -1.35265380e-01  3.57729316e-01
  -2.12148920e-01  9.93573889e-02  2.37825438e-01  1.76816359e-01
  -1.73953488e-01  5.77923469e-02 -1.91376999e-01 -4.67770278e-01
   2.86536187e-01 -3.21914762e-01  7.20094740e-02 -6.79704785e-01
   1.14722364e-01 -1.80936188e-01 -2.60004904e-02  5.76205552e-01
   2.27879852e-01  3.70164126e-01 -3.77557546e-01 -1.88290942e-02
  -2.17300847e-01 -2.32720077e-02 -3.57061774e-01 -1.81587920e-01
   8.34740028e-02 -2.37566844e-01  1.39201388e-01 -1.57447774e-02
   1.09063402e-01  5.59628801e-03 -5.43421626e-01 -3.55607390e-01]
 [-5.60072102e-02 -4.66289908e-01 -5.05002625e-02 -2.50694603e-01
  -3.46300662e-01  6.54055655e-01 -1.46698833e-01  1.01992428e-01
   1.71891943e-01 -4.55144525e-01 -2.92462409e-01 -1.07068288e+00
   4.63605165e-01  2.01385722e-01 -3.18975359e-01 -5.78029811e-01
  -8.24500695e-02  5.93464971e-01  5.37516654e-01  5.87239444e-01
   1.76812202e-01 -1.34629682e-01 -3.18460047e-01  1.45627841e-01
   4.00094688e-01  1.01603732e-01  2.56669283e-01 -9.86055359e-02
  -1.41302422e-02  3.88178438e-01  1.44565646e-02  7.29953945e-02
   3.13554257e-01 -8.71108651e-01  8.27899501e-02 -2.09903091e-01
   3.62812094e-02 -8.25029016e-01  6.23183884e-02  6.37720674e-02
  -5.95114708e-01  4.37008113e-01 -2.53337920e-01  8.08848143e-02
  -3.91008079e-01 -1.90261275e-01 -3.86249483e-01  2.20455915e-01
   2.40423620e-01 -4.50045615e-02  5.06893814e-01 -2.14108706e-01
   1.70781627e-01 -2.71174222e-01 -4.52220626e-02  3.23650926e-01
   5.52725419e-02 -8.62573922e-01 -2.10649088e-01  2.28797868e-01
   8.17007646e-02  1.24675132e-01 -7.57849962e-02  4.34833504e-02
   1.30317613e-01  3.76172662e-01 -3.44019905e-02  2.66038831e-02
   5.68647206e-01  5.69764435e-01  1.16728298e-01 -1.03978239e-01
   6.84056997e-01  4.51915488e-02 -7.69621879e-03 -2.99381316e-01
  -4.24926192e-01 -5.08325025e-02  5.97462773e-01 -4.81574744e-01
  -6.88683450e-01 -3.47399190e-02  2.79632509e-01 -4.33816671e-01
  -4.57956344e-02 -2.80765370e-02 -1.12571549e+00  3.39707211e-02
  -3.61725003e-01  1.52843565e-01 -8.02344158e-02 -7.60651708e-01
  -1.21032193e-01  7.47576207e-02 -7.08887428e-02  8.79557058e-02
  -1.47197798e-01 -2.07891405e-01  4.72662508e-01 -2.51325041e-01
  -3.33369523e-01  1.76699132e-01 -4.28718954e-01 -8.40952337e-01
   2.89031655e-01 -1.32484838e-01  1.19583689e-01  8.37967545e-02
   4.45701987e-01 -3.03416908e-01  3.13367039e-01  2.17651218e-01
  -3.73197258e-01 -3.44658978e-02 -4.13450003e-01  3.23285937e-01
   1.34577394e-01 -3.07992045e-02 -1.91383913e-01 -1.03499450e-01
  -5.62359691e-01 -6.97245240e-01  1.03789464e-01 -3.84834968e-02
   4.62831892e-02  3.53649259e-01  2.94488132e-01  6.38212785e-02]
 [-2.84850355e-02  1.10840775e-01 -9.87923294e-02 -2.66766369e-01
  -7.33510628e-02  2.29278103e-01 -1.04312882e-01  2.03804329e-01
   2.34392226e-01 -1.54644493e-02 -2.66235083e-01 -5.17500460e-01
   1.31407946e-01  3.25708181e-01 -2.78298736e-01 -2.58020371e-01
  -3.37498002e-02  2.06945136e-01  4.05093998e-01  6.25590831e-02
  -1.72846854e-01 -1.59703538e-01 -3.38279963e-01 -1.88615575e-01
   2.97156274e-01  6.07128680e-01  1.95362009e-02  2.27300659e-01
  -6.37536421e-02 -1.06835127e-01  9.97109413e-02  2.89886713e-01
   2.92771488e-01 -6.67563751e-02  4.27136347e-02 -2.25784913e-01
   2.69803792e-01 -1.08518445e+00 -8.69788304e-02 -1.18316881e-01
   3.49379092e-01  1.30471930e-01 -2.33206257e-01 -7.81161264e-02
  -8.41485709e-02 -1.14579976e-01 -8.11055303e-02  3.31487268e-01
  -1.30926324e-02 -6.56655803e-02  4.32072699e-01 -4.36963111e-01
  -1.84191242e-01 -1.05624400e-01  3.33572514e-02  2.56493270e-01
   6.55277297e-02 -2.36068413e-01  3.07235718e-01  1.43468529e-01
  -2.16382489e-01  2.25220963e-01 -9.10303667e-02 -8.92873853e-02
   7.00328276e-02  1.03644647e-01  6.80788159e-02 -1.09373540e-01
   4.69477713e-01 -4.51308349e-03  1.97315201e-01 -1.47157013e-01
   1.91010669e-01 -9.55263078e-02  5.33260033e-02 -1.34576529e-01
  -3.56286466e-01 -1.70756783e-02  2.45357722e-01  1.40867859e-01
  -9.40584898e-01  3.27550434e-02 -2.99633089e-02 -2.24713981e-01
   5.28261587e-02  6.29289299e-02 -5.37648499e-01 -4.70967293e-02
  -5.91465719e-02  3.61980081e-01  4.90449250e-01 -3.59522998e-01
  -6.00838661e-02  5.67318946e-02  2.08659917e-02  4.05824393e-01
  -7.57950917e-02 -2.01760069e-01  4.43640679e-01  1.11001693e-01
   5.52850701e-02  1.75142407e-01 -9.54056531e-02 -5.73829889e-01
  -1.01087511e-01 -1.48806363e-01  4.11235951e-02  1.69164583e-01
  -8.78817663e-02 -3.26293632e-02  2.46297255e-01  4.60383654e-01
   9.40281823e-02  1.27316222e-01  7.47813731e-02  1.21841535e-01
   1.23648800e-01 -5.52610159e-02  8.13527107e-02  2.08865643e-01
  -3.17866027e-01 -6.72679901e-01 -3.04873139e-01 -2.91965842e-01
   3.69023681e-02  1.17054299e-01  3.73230249e-01  3.58881861e-01]
 [ 3.87394577e-02  8.69392902e-02  7.43039995e-02 -2.25327477e-01
   6.02590702e-02  1.62303820e-02 -1.30682185e-01  8.91782120e-02
   6.54034391e-02  4.40877723e-03 -5.40406764e-01 -3.08099449e-01
   1.78828597e-01  6.96166605e-02  1.19969547e-01 -5.92722781e-02
  -1.22870058e-01  1.95815176e-01  2.62450784e-01  3.06910649e-02
   4.56197485e-02 -2.19436020e-01  2.67942548e-01 -4.76536676e-02
   8.05958360e-02  2.45395049e-01 -5.91603927e-02  2.58371294e-01
   1.29213305e-02  2.45737899e-02 -2.35638395e-02 -4.72825736e-01
   3.89286220e-01  1.98722482e-01  1.61547184e-01  3.63752484e-01
   2.23337770e-01 -3.47361833e-01 -3.31733793e-01 -1.98320910e-01
   2.52184272e-01  1.45995006e-01 -1.27582207e-01  4.06404853e-01
   3.17734778e-01  3.31484079e-01  5.53485267e-02  1.83281481e-01
   4.36366424e-02  2.97584441e-02  3.86356622e-01 -1.79331556e-01
  -1.41500935e-01  6.12586923e-02 -6.11809492e-02  2.81972319e-01
  -6.51244819e-02  3.37614268e-01  1.53210029e-01 -1.81243885e-02
  -9.44914743e-02 -2.33623177e-01 -8.69200900e-02  2.20833328e-02
  -1.07915051e-01 -7.26824552e-02  3.89761589e-02 -7.75244832e-02
   1.80513456e-01  1.86597347e-01 -1.15807101e-01 -8.49742964e-02
   9.91478637e-02 -5.51067367e-02 -7.93745741e-02 -1.29955366e-01
  -2.16938794e-01 -3.76390480e-03 -6.72188997e-02  5.65720797e-01
  -6.63227856e-01 -3.66737396e-01 -1.16500005e-01 -2.61020333e-01
   6.84227422e-02 -7.14557618e-02 -1.81055501e-01  1.36273503e-02
   1.20763637e-01  2.68554688e-01  3.75682861e-01 -1.75260723e-01
   2.29204316e-02 -1.45846792e-02 -1.94360316e-01  3.43628168e-01
   1.50185376e-01 -3.73100728e-01  1.41237587e-01  3.04104120e-01
   2.41421804e-01  2.68073201e-01 -1.76688880e-02 -3.52190807e-02
   1.90276563e-01 -1.16987243e-01  2.99456656e-01  3.57118070e-01
   2.68029440e-02 -2.08792150e-01  4.45436954e-01  2.46609673e-01
   4.21385951e-02  7.79669210e-02  5.27547784e-02 -1.39265973e-02
   1.58575047e-02  7.44060278e-02  1.44189879e-01  3.50003332e-01
  -2.48074517e-01 -1.97831422e-01 -2.96406418e-01  1.70517758e-01
  -1.99390650e-01  1.21056698e-01 -1.10096326e-02  1.17162608e-01]
 [ 1.08897105e-01  3.65737349e-01  7.76164010e-02 -2.03942105e-01
   3.05280358e-01  8.67916197e-02  1.04142621e-01 -2.51134574e-01
   1.44362077e-01 -3.22297394e-01 -5.64098835e-01  1.12229679e-02
   3.18037048e-02 -9.93645340e-02  3.82913381e-01 -6.17449760e-01
  -1.80747151e-01 -5.77350073e-02  3.21447313e-01  2.72703528e-01
   1.48564786e-01 -8.99679214e-02  2.15361580e-01 -1.68362260e-01
   1.17005305e-02 -3.03181738e-01  1.69970199e-01  2.11115658e-01
   3.95413861e-02 -7.30495304e-02  2.64309853e-01 -3.81008625e-01
   2.15563908e-01 -4.64260668e-01  4.69105303e-01  3.46005738e-01
   1.41770378e-01  1.30262122e-01 -3.09945196e-01 -1.67269081e-01
   7.17535848e-03 -1.63856134e-01 -1.18173197e-01 -4.81907539e-02
   3.39904249e-01  5.89251472e-03  1.12274915e-01  2.15845525e-01
  -6.46006837e-02 -2.16403697e-02 -1.57300219e-01  2.07492355e-02
   2.00112194e-01  8.47105011e-02  3.18256505e-02  2.54413337e-01
  -9.75064840e-03  3.70021522e-01 -1.05785698e-01  1.32766813e-02
   3.24768871e-02 -1.64986953e-01  2.42741350e-02 -4.32590581e-03
   1.66732043e-01 -1.74464107e-01  5.20044826e-02  1.56486496e-01
  -7.54027488e-03 -3.35724726e-02 -3.19655500e-02  2.17911214e-01
   1.33917138e-01 -1.66205056e-02 -4.59978469e-02  1.13944858e-01
  -3.04954827e-01  4.94172312e-02  8.91659036e-02  2.81686038e-01
   1.94334701e-01 -6.54638279e-03 -9.43360850e-02 -5.45034945e-01
  -7.53436014e-02  1.23473676e-02  3.82274300e-01 -5.08373342e-02
   3.26479375e-01  1.86160952e-01  3.43059093e-01  6.66709915e-02
   9.85314846e-02 -1.99849233e-01 -2.34481152e-02 -1.39778063e-01
   1.12399198e-01 -2.14278996e-01 -2.19294891e-01  1.08307585e-01
   4.41199720e-01  1.72797412e-01 -1.27899855e-01  2.63111323e-01
   1.19802542e-01  1.71004295e-01  3.46154213e-01  1.05416119e-01
  -3.14303517e-01 -2.54256248e-01  2.40518481e-01  2.84889609e-01
  -2.05205470e-01 -2.36054976e-03 -1.45440072e-01  2.20028721e-02
  -2.46294308e-03  1.23932913e-01  3.02524030e-01  9.18032825e-02
   9.32866260e-02  1.10578172e-01 -1.67957589e-01  3.07144284e-01
  -1.89069390e-01 -2.12725047e-02 -6.53213486e-02 -2.71435082e-01]
 [ 1.43919751e-01  6.31548911e-02  2.19886988e-01 -3.53826284e-02
   2.19696477e-01 -3.87337394e-02  2.60795593e-01 -4.37068902e-02
   1.39616743e-01 -1.35950789e-01 -3.09058905e-01  3.72238785e-01
   1.88836247e-01 -8.16523582e-02  2.97527343e-01  5.97395115e-02
  -1.44675195e-01  4.05728459e-01  1.82654992e-01  1.33409321e-01
  -8.95090476e-02 -5.70167229e-02  2.89356679e-01 -5.19562922e-02
   6.48622066e-02 -1.61897287e-01  1.59580693e-01 -1.83862150e-01
  -2.53145024e-02  3.81594487e-02 -2.12315634e-01 -4.84198630e-01
   1.52106881e-01 -2.05021739e-01  2.17669278e-01  3.21707964e-01
   2.93345600e-01  1.51669690e-02 -2.64332771e-01 -1.57607004e-01
  -1.17198192e-01 -1.18932709e-01  1.97742105e-01 -1.10805921e-01
   6.91232830e-02  1.53612807e-01 -1.19532332e-01  3.81426215e-01
  -4.11899298e-01 -3.75662260e-02  2.90157646e-02 -3.13452125e-01
   3.35669458e-01  2.14505181e-01 -1.78205371e-01  3.55151415e-01
   3.55226398e-02  3.16058069e-01 -1.14914052e-01  1.84423059e-01
   1.58623576e-01  1.63957581e-01 -1.12293467e-01 -5.12643419e-02
  -4.20821100e-01 -1.76937640e-01  3.81920576e-01  3.21226984e-01
   1.16645522e-01  4.07667011e-01  9.64619741e-02 -2.85144262e-02
   1.51979581e-01  4.22706343e-02  3.64177525e-02  6.10340387e-02
  -8.12857524e-02 -4.60595414e-02 -1.25817433e-01  4.33984458e-01
   2.88429707e-01 -3.10859472e-01  1.03482120e-01  1.76135600e-01
   6.22225143e-02 -9.47448388e-02  3.36239338e-01  3.43929157e-02
   2.19600081e-01 -2.26902083e-01  2.14105591e-01 -1.51253596e-01
   2.02101260e-01 -7.11571723e-02  4.85341996e-03 -5.17371893e-01
   5.34520000e-02 -8.73535350e-02 -2.60682516e-02 -3.16108048e-01
   2.05896884e-01  3.11004639e-01 -1.36423886e-01  4.02974427e-01
   3.11258256e-01 -3.46934460e-02  2.21336409e-01 -9.82708931e-02
  -5.20807981e-01  4.42970963e-03  1.35974735e-01  4.54168171e-01
  -1.22297972e-01 -1.34072572e-01 -3.46591860e-01 -1.58826694e-01
  -9.73090008e-02  9.91889238e-02  2.84628779e-01  2.91437328e-01
   3.87313396e-01  3.61233085e-01 -1.41412422e-01  3.41802150e-01
  -9.83849093e-02 -4.06301729e-02 -3.81457925e-01 -4.24821794e-01]
 [ 2.08273351e-01  3.83891501e-02  3.29948924e-02  1.91989586e-01
   6.03865683e-02  1.86780572e-01 -1.04950264e-01  3.83912534e-01
   1.81943670e-01  4.81895842e-02 -3.92402530e-01  3.08692873e-01
   1.94070145e-01  1.34757608e-01  2.44983584e-01 -3.05014439e-02
   2.50322409e-02  4.23525870e-01 -1.03487089e-01  2.07131475e-01
  -5.23984194e-01 -1.93686008e-01  1.79708242e-01  1.51144132e-01
   1.32782787e-01 -6.98953643e-02  3.37749481e-01 -1.73395395e-01
   1.68244038e-02 -5.40129431e-02 -7.50823379e-01 -4.65283900e-01
   1.33577272e-01 -8.64832923e-02  3.90015304e-01  4.84575033e-01
   3.84887785e-01  1.09489925e-01  8.31312835e-02 -3.84063035e-01
  -1.77257493e-01  1.49141893e-01  2.28819177e-01 -6.82939664e-02
   1.01178706e-01  1.98722914e-01 -2.56321520e-01  3.76988143e-01
  -2.84279734e-01 -5.02825119e-02  3.50981444e-01 -4.34895009e-01
   3.56419891e-01  1.02323599e-01 -5.60197327e-03  1.62564293e-01
  -7.72932991e-02  3.23909998e-01  2.92794704e-01  2.66668588e-01
   6.93705231e-02 -6.60780221e-02 -2.87870038e-03 -2.37023197e-02
  -7.05844879e-01  4.48490605e-02  4.30886298e-01  2.05234483e-01
   3.01597297e-01  3.73902291e-01  1.11957125e-01 -1.28814027e-01
   1.22776464e-01 -8.42923820e-02  2.33387947e-03  2.06823438e-01
   2.31745429e-02  4.33184803e-02 -3.54807675e-01  1.28885180e-01
   1.86132267e-01 -1.57745689e-01  2.87350655e-01  1.42964616e-01
  -2.97360998e-02 -1.56990886e-02  3.91306013e-01  2.76223645e-02
   2.54250541e-02 -3.85622233e-01  4.40840095e-01 -3.60987365e-01
   8.01066235e-02 -1.90959781e-01  1.40674263e-01 -8.34345996e-01
   2.13174701e-01 -2.62847811e-01  6.61266968e-02 -2.29494557e-01
   1.93482801e-01  3.31715435e-01 -2.65065640e-01  3.74388099e-01
   3.43579084e-01 -4.88442369e-02  2.38854244e-01 -5.09975441e-02
   8.24193731e-02 -1.64762780e-01  4.64261860e-01  3.07937413e-01
  -2.18203649e-01 -2.80651212e-01 -5.55039644e-01 -2.75588453e-01
  -2.50626832e-01  1.53045595e-01  2.94654846e-01  4.18019295e-01
   5.32389164e-01  9.59606767e-02 -2.95294434e-01  3.51080835e-01
   6.20901398e-02  5.61515167e-02 -3.34406406e-01  2.98516452e-02]
 [ 1.95077524e-01  4.27543998e-01  1.30051017e-01  4.08609062e-02
   1.31659895e-01 -1.19348980e-01  2.60074083e-02  8.47009420e-02
   1.58664703e-01  1.79315284e-01 -1.27578393e-01  2.27731645e-01
   1.78507313e-01  8.37951452e-02  4.00399536e-01 -5.18586338e-02
  -1.02102406e-01  6.58904910e-02 -1.56154871e-01  2.17106432e-01
   2.76464611e-01 -2.27109432e-01  3.87034208e-01 -2.72149384e-01
   3.81332077e-02 -2.27003723e-01  1.80119976e-01 -1.34758860e-01
  -2.51377579e-02 -6.07155859e-02 -8.87145475e-02 -2.40739465e-01
   3.12397122e-01 -7.81486332e-02  5.17436445e-01  3.08800250e-01
   4.58637834e-01  1.92844287e-01  4.08256892e-03 -2.66959190e-01
   3.90758574e-01 -2.04403520e-01  5.00446223e-02 -2.94525146e-01
   1.86198652e-01 -8.35229009e-02  5.79560846e-02  1.76659957e-01
  -2.23242283e-01 -6.27392009e-02 -9.60606188e-02 -8.63057747e-02
  -1.91028342e-02  1.66294679e-01  1.99842915e-01 -1.64177448e-01
  -8.74882787e-02  6.25618100e-01  9.60171372e-02  2.54536629e-01
  -5.68863861e-02  9.09871459e-02 -1.56278387e-02 -1.58468951e-02
  -2.04657793e-01 -2.27698535e-01  4.71895218e-01  1.57655418e-01
   5.97776994e-02  2.15847835e-01 -9.27456617e-02 -1.92060903e-01
   1.63211256e-01  6.66606065e-04  3.14997137e-02  2.31672078e-01
  -1.34774595e-01 -7.20975697e-02 -2.10943788e-01  3.25413764e-01
   3.26784521e-01 -2.53771752e-01 -7.69235343e-02  8.84005949e-02
  -1.09402863e-02 -1.06150515e-01  2.54223764e-01 -7.06845596e-02
   3.60485196e-01 -1.78039834e-01  2.77378708e-01  2.21027229e-02
  -9.75568080e-04 -1.10227257e-01  1.63775027e-01 -4.86594915e-01
   1.74299538e-01 -2.89956599e-01 -3.51957947e-01  2.29368806e-01
   4.44223076e-01  2.55240947e-01  2.29723677e-01  4.02129263e-01
   1.40784502e-01  1.58298656e-01  7.89263397e-02 -8.48427564e-02
  -4.46314663e-01 -1.77880693e-02  5.84158719e-01  2.59690374e-01
  -3.13957214e-01 -8.45229179e-02 -4.62000996e-01 -1.68799132e-01
  -9.18867588e-02 -7.13069141e-02  3.33715051e-01  3.13976467e-01
   3.08610231e-01  1.21578425e-01 -9.70697626e-02  4.33155209e-01
  -1.74469143e-01 -9.29382667e-02 -3.57562333e-01 -1.21984988e-01]
 [ 1.79308042e-01  2.47175805e-02  1.41352862e-01  1.15890473e-01
  -1.89544618e-01  1.82058930e-01  8.66218731e-02  2.09437415e-01
  -5.14240898e-02  2.88976610e-01 -9.69199166e-02 -2.24399567e-02
   9.96012390e-02  6.55064806e-02  1.77105203e-01 -9.50538889e-02
  -1.29932031e-01  1.88575834e-01 -9.98667553e-02  7.31813163e-02
   4.41353679e-01 -2.08241731e-01  1.86513409e-01 -1.92406595e-01
   7.33369589e-02 -6.41467050e-02  4.60100686e-03  2.93626100e-01
  -2.70501785e-02  1.89005256e-01 -1.63503349e-01 -3.48433256e-01
   3.41656119e-01  5.65078296e-02 -2.80974479e-03  3.81357342e-01
   3.95410061e-01 -3.19201320e-01 -3.24802607e-01 -4.75786835e-01
   2.34218404e-01 -3.14050056e-02  3.32008414e-02  1.43007517e-01
  -1.83501001e-02  1.95310786e-01  1.72720298e-01  3.07226390e-01
  -1.54985368e-01 -1.05382979e-01  2.03668743e-01 -3.54534596e-01
   5.48702888e-02  2.46508881e-01  3.50842662e-02  1.52553126e-01
  -3.34946327e-02  4.56987470e-01  9.71205756e-02  8.49928707e-02
  -2.34320074e-01 -8.26254413e-02 -4.12097536e-02  7.02405646e-02
  -1.53928667e-01 -1.17015854e-01  3.13435465e-01 -4.79387827e-02
   2.49337386e-02  7.51432553e-02 -1.15543958e-02 -1.59124449e-01
   1.30985633e-01 -3.90080437e-02  2.63808817e-02  1.09793118e-03
  -3.72233868e-01 -5.79447895e-02 -1.30759612e-01  5.21508694e-01
  -2.31861711e-01 -4.43028361e-01 -2.72992492e-01 -1.67813584e-01
  -4.25929064e-03 -9.08849612e-02 -4.29935724e-01 -1.31289288e-02
   7.54119903e-02  2.75657624e-01  7.12705962e-03 -2.05239117e-01
   1.88924819e-01 -1.04031488e-01 -2.83142686e-01  2.84182839e-04
  -3.56904715e-02 -1.87571123e-01  1.24617033e-01  3.30126792e-01
   2.96708107e-01  1.75634906e-01  7.70408884e-02 -1.55817950e-02
   2.32676208e-01 -3.59855313e-03  2.30536729e-01 -4.67379242e-02
  -3.51129591e-01 -1.76641151e-01  3.54816914e-01  5.02032042e-01
   1.17463559e-01 -2.04207718e-01  6.06776960e-03  4.36599143e-02
   1.41091287e-01  6.30443692e-02  1.24673329e-01  1.97241411e-01
  -3.26246321e-01 -1.50241181e-01 -1.94490567e-01  1.54082254e-01
  -1.39172643e-01 -1.76964253e-01  3.81111950e-02  8.27619657e-02]
 [ 7.06047714e-02  1.27018308e-02 -6.38693385e-03  3.62743512e-02
  -3.76793832e-01  4.65241224e-02  2.60528117e-01  3.16043437e-01
   3.71085517e-02  2.67431885e-01 -5.31422853e-01 -1.74801558e-01
  -4.95743304e-02  8.62494260e-02 -6.18893839e-02 -4.97843742e-01
   2.57204752e-02  4.48485076e-01  4.67957854e-02  2.60926485e-01
  -9.56270099e-03 -2.27938563e-01 -2.85270810e-01 -3.85612488e-01
   2.34177262e-01  1.41671687e-01  8.76199007e-02  2.77959794e-01
  -7.27220625e-02 -1.39731988e-01 -2.44044438e-01 -2.29044273e-01
   3.14407378e-01 -1.81072932e-02 -2.02866048e-01  1.59425259e-01
   2.72729456e-01 -8.04237247e-01 -6.08797133e-01 -2.90033042e-01
  -6.60362989e-02  1.23947985e-01 -1.89211160e-01 -1.59947779e-02
  -1.15460902e-01  6.43445030e-02  3.24264199e-01  2.21164659e-01
  -5.80991432e-02  9.86307859e-04  3.75134110e-01 -1.99033901e-01
   4.91425693e-02  1.27182782e-01  1.73410609e-01  2.09515408e-01
  -4.40693200e-02  2.71604538e-01  2.00548634e-01  1.62410080e-01
  -4.57397431e-01  1.75786391e-01  5.82268974e-03  6.34052902e-02
   2.85877604e-02 -1.76941112e-01  6.67211711e-02 -3.27617489e-02
   3.39959323e-01  1.57100916e-01  1.48401722e-01 -1.45449251e-01
   1.39455378e-01  5.29929325e-02 -6.76740557e-02 -2.53709614e-01
  -3.10314536e-01 -8.38237405e-02  1.84298247e-01 -3.98009196e-02
  -9.93912041e-01 -6.17516696e-01 -2.68643780e-04  2.36524135e-01
   4.82359603e-02 -4.21913937e-02 -1.12505329e+00  6.78088143e-02
  -4.82197094e-04  3.52155894e-01  4.30966973e-01 -3.69547874e-01
   1.62163660e-01 -1.25530973e-01 -3.48295331e-01  5.81976950e-01
  -2.31304228e-01 -4.56207573e-01  4.29962695e-01  6.81777298e-02
   1.13004193e-01  1.12033144e-01  3.60100232e-02 -2.18843192e-01
  -4.45868447e-03 -1.60750709e-02  3.48881304e-01  4.41434950e-01
  -3.21778029e-01  1.00079328e-01  6.92358911e-01  4.02810216e-01
   2.89988309e-01  1.55664444e-01 -1.25386819e-01  1.65259838e-02
  -3.86803187e-02  1.65900752e-01 -5.75437397e-02  1.42663389e-01
  -5.22378027e-01 -4.84643400e-01 -2.43169829e-01 -3.99918675e-01
   5.85130900e-02 -3.56012315e-01  2.39751250e-01  6.00816667e-01]
 [ 2.86663800e-01 -2.76875943e-01  3.53858411e-01 -5.35209402e-02
  -6.72162592e-01  2.99043685e-01  3.30002129e-01  3.56268823e-01
  -2.43750632e-01 -8.53168815e-02 -3.27231258e-01 -6.71783626e-01
   1.02878802e-01  7.12384805e-02 -2.07634926e-01 -2.52424300e-01
   5.49841411e-02  5.54774284e-01  3.28811616e-01  5.58972478e-01
   3.82182091e-01 -1.52408630e-01 -2.18008503e-01  4.77812253e-02
   1.17602900e-01  3.34140030e-03  6.57668114e-01 -3.64863016e-02
   4.77863699e-02  8.50599036e-02 -3.50578755e-01 -6.92969412e-02
   1.20231554e-01 -2.02205449e-01  7.45337307e-02  2.99903125e-01
   2.75234729e-01 -8.61606836e-01  2.63905432e-02 -1.21821530e-01
  -3.60848367e-01  2.44258225e-01 -2.65732676e-01  8.90766531e-02
  -6.35682344e-01 -9.57971662e-02 -2.94811487e-01  4.25859448e-03
   5.04406728e-02 -8.41458738e-02  5.01746535e-01 -1.12453990e-01
   2.82050073e-01 -1.92730017e-02 -7.89011940e-02 -1.99679673e-01
   6.43493012e-02 -3.39570940e-01  5.14080711e-02  2.42730126e-01
  -1.23670861e-01  3.44418436e-01 -5.54736098e-03 -8.50765705e-02
   1.62096605e-01  3.39300543e-01  8.48780945e-02  1.82554759e-02
   5.18369973e-01  4.17786658e-01  2.03851908e-02 -3.18902992e-02
   4.08589065e-01 -8.17880556e-02 -3.90927009e-02 -8.99059623e-02
